{
  "version": 1,
  "created_at": "2025-09-03T11:42:43.801797",
  "last_updated": "2025-09-03T11:42:43.816970",
  "capabilities": {
    "mathematics": {
      "arithmetic": 0.85,
      "algebra": 0.75,
      "calculus": 0.65,
      "statistics": 0.7,
      "geometry": 0.72,
      "proofs": 0.6,
      "optimization": 0.68,
      "number_theory": 0.63
    },
    "language": {
      "grammar": 0.88,
      "comprehension": 0.82,
      "translation": 0.76,
      "sentiment": 0.84,
      "summarization": 0.73,
      "qa": 0.78,
      "generation": 0.75,
      "reasoning": 0.71
    },
    "code": {
      "syntax": 0.9,
      "correctness": 0.72,
      "optimization": 0.65,
      "debugging": 0.68,
      "refactoring": 0.7,
      "testing": 0.63,
      "documentation": 0.69,
      "security": 0.64
    }
  },
  "cumulative_improvements": [],
  "model_weights": {
    "layer_1": [
      [
        -2.7218312023117166,
        1.3919762003099114,
        0.4167873720758822,
        -0.3523148371396428,
        2.1777926921552813,
        0.4309707084606692,
        0.4524389524514174,
        -0.09314811304534887,
        0.17000657935909194,
        0.24606690100288006,
        -0.5983008277139787,
        1.17899214957272,
        0.2563450198709336,
        0.9775090378860201,
        -3.117135026955447,
        1.6270308751825957,
        0.38603492541917045,
        0.8610382586298088,
        -0.5890939207305745,
        -0.296986319962946,
        -1.145119333182465,
        -0.11513234353049899,
        -0.9068439342195957,
        1.08393163205435,
        -0.19828507359715403,
        -1.877419897685316,
        0.5387374471224783,
        0.35090432485019507,
        -0.6673211764616234,
        0.2551481270744276,
        0.5665016871762266,
        0.23313263865972048,
        0.5265221549684853,
        -0.45740381440125616,
        0.8015593205841648,
        -0.25444319447160907,
        0.5939714825441381,
        -0.5854688336964132,
        1.1420204357485422,
        -0.45513813345569226,
        -1.1922231909548175,
        -0.764043218103258,
        -0.7729991463765945,
        -1.4000120531962963,
        0.38633811751031644,
        0.5376845130447095,
        0.2734711351692536,
        0.6335222983752379,
        -0.3511403804805936,
        0.5313636774378357
      ],
      [
        -0.9793064024690221,
        1.2398979114641542,
        0.20159606348554282,
        -2.942173293838775,
        0.25477582823462963,
        -0.4001151351148538,
        -0.6928063932023004,
        0.30419424810683804,
        -0.3220663284840137,
        -0.5531766086906399,
        -1.1330835235299899,
        -0.31877789484076163,
        0.6726470359949261,
        -1.186185235203177,
        -0.1909894500579126,
        -0.3839686784686243,
        0.5570159690714076,
        0.7199035799773511,
        -0.2759591181186079,
        0.7372164956048975,
        -0.49334375851079204,
        -1.2075133960479758,
        -0.8522942135623189,
        0.5030331094719707,
        -1.1297657200204767,
        0.3839973414280101,
        0.08141401411487195,
        -1.858924036564892,
        1.2698028600310358,
        -2.243644508178146,
        -0.4441069167615017,
        0.7600477407386871,
        0.5432612653560834,
        1.6831561282872125,
        -0.9832945840980721,
        -1.0512275360156098,
        -0.159613222401012,
        0.12806088058029313,
        -0.1288895755028956,
        3.090105939620638,
        0.12919481214703557,
        -1.040291380925848,
        -1.3530719602514978,
        0.03933947538498028,
        1.380081710233559,
        0.9767051167941875,
        -1.0874318063237673,
        -0.7259854814172552,
        2.924222404468136,
        -0.4414610668735083
      ],
      [
        1.3905189715952846,
        0.57318371129901,
        -0.7029748622223283,
        -0.35917085639876944,
        0.9647074975687135,
        -1.9539633334357518,
        0.9233521237761559,
        0.10821150812798515,
        -1.4109272563802606,
        -0.1099757563424236,
        0.12267349269240228,
        -0.8882086484754541,
        0.4436560308173175,
        -1.0320063406823028,
        0.8042030454721985,
        1.2678266665704663,
        -1.058203871569608,
        -0.17840418768022065,
        -1.2655566428521947,
        -1.1272811909761895,
        -1.0346173806164207,
        0.3787365681225759,
        0.6895770076111677,
        0.572566473926335,
        -0.8874726170966438,
        0.2949760978158707,
        0.48594211440831236,
        0.27091913531349526,
        -0.7268431964492845,
        2.5717314935001085,
        -0.8181798703962878,
        0.8258077663638933,
        0.8092810520665032,
        -0.6234181953476142,
        -0.5100939607276112,
        -1.6165703835741057,
        0.1294780010436308,
        -0.2598960292922756,
        -0.42646991051955,
        0.32348606010156067,
        -0.26476667693466543,
        -1.2939149688561185,
        0.8489183529654942,
        0.9944021036039958,
        0.5650166968990922,
        -0.49736587987959824,
        -1.5710915213762142,
        2.3187318916223796,
        0.661436344661691,
        -2.078387011828383
      ],
      [
        -0.09166721378017717,
        -0.14153570413321626,
        -3.4378598879463667,
        0.9224734771745996,
        -1.5306353128716732,
        1.2962666048933487,
        0.40740751160088495,
        1.2929635445973342,
        1.37495179811298,
        -0.4350638430241909,
        0.1316478963726363,
        0.16403503829752178,
        -0.6807179834517029,
        -0.8663374675014982,
        -0.27552452408318834,
        -0.11204351610387689,
        -2.2352868808814166,
        -0.9439982845124794,
        -0.6348002613495546,
        -0.23491256292033327,
        -1.6709358639877863,
        0.9195702203437102,
        0.2905609045846389,
        0.3403856631855812,
        0.3035545278921844,
        1.2971501120535072,
        1.369463816335344,
        -1.1515296202090715,
        0.6307387725737602,
        -0.5932903050037056,
        2.2242479489665063,
        -0.7119812220572579,
        -0.097163918284684,
        0.15888086997681072,
        -2.0655663250397396,
        0.2263431583042142,
        0.20526405380171348,
        -0.9101643522555819,
        -0.5463776396321609,
        0.7468948395901077,
        0.22971606526895308,
        1.2785309567617469,
        -1.365874433417777,
        -0.9424787813378481,
        -0.621777956069237,
        0.4443586578069172,
        -0.8645032182994322,
        -1.0049895221200777,
        -0.4578859112155905,
        0.4306317291939824
      ],
      [
        -0.38049789657942873,
        -1.3544938820774635,
        -1.552687539914603,
        -0.9112269593482245,
        0.6179726058404437,
        0.18281825202463128,
        -3.6075751169889783,
        -0.49330539709794435,
        -0.5244090392845483,
        1.1991028913325097,
        -0.04589684546525149,
        -0.49677053970787055,
        1.699787458886831,
        1.0299740970529565,
        1.1847597296227437,
        -0.8125865708322083,
        0.04052592201604579,
        -1.4597639778596954,
        -0.07588212449962553,
        0.3125093287342584,
        -0.7365745499558151,
        -1.2909994818546422,
        -1.8307738429628126,
        1.2682329916816577,
        -0.5765902835111345,
        1.020664865635354,
        0.4783744616450412,
        0.3141820283445197,
        0.3047273056961107,
        1.3561402761349997,
        -0.2587305479756,
        -0.9391118184272548,
        2.454974525104503,
        0.38904143722880447,
        0.3373755735386682,
        -0.7224326503044938,
        -0.5616360240262976,
        0.020951218209554368,
        -2.433817415704432,
        0.2613257375816185,
        -0.31020285080659304,
        -0.9545865228025503,
        -0.08598224890091945,
        -0.47588924923356823,
        0.6615828089568939,
        0.12068076747656344,
        -1.4156657821696539,
        1.2341268123718083,
        -1.1751923091998067,
        -0.8636790420711672
      ],
      [
        -1.0282520217721947,
        0.8098502874514213,
        0.9748456510092964,
        0.42454699687555036,
        0.4498939508714106,
        1.3830933790600062,
        0.6700833715621347,
        0.24187176538677632,
        -0.5263267053056202,
        -0.11699990329350601,
        -0.14156842193141997,
        -1.1828012953220577,
        1.8033382406485463,
        -0.08696600901209434,
        -0.657770782866586,
        0.11683841745742775,
        -0.12464012926826847,
        0.26857971282437443,
        -0.5854588440007524,
        0.6323568842446089,
        1.2796344330647704,
        0.11785716944088481,
        0.13036418961850457,
        -0.003846569442538562,
        1.1362999961290008,
        1.0656061659309188,
        0.5811573546243461,
        0.361942880061354,
        -1.9348489466883634,
        -1.6445507857387598,
        2.2805838700627246,
        -0.4160644676218519,
        -0.22421120601802116,
        -2.429224802732213,
        -1.2748435755899672,
        0.6015479296531961,
        0.33275182005026743,
        -0.413991722461846,
        0.7089691351492745,
        1.8021400220747374,
        -0.025348748333088113,
        -0.20311408782180845,
        -0.24061471188756745,
        1.5279060719659536,
        -0.2531466848788718,
        -1.521364759135714,
        -1.2226645420190951,
        -1.520032613157172,
        0.9179567414787904,
        0.44385199880937626
      ],
      [
        -0.7017784570332185,
        0.48835469043408264,
        1.9132860727920635,
        0.09873265089839897,
        0.23871587969392596,
        0.8031200682615038,
        1.967709483626698,
        -0.98225658995616,
        0.5699223543190168,
        -1.0257187023691121,
        0.33779452383759,
        0.023532902230623813,
        -0.6031266038202301,
        -0.6841024824797028,
        -0.7359497098351478,
        -0.37771793776859836,
        0.28704053078272107,
        -0.07936709949864192,
        0.32569618596610656,
        -0.8258480624906452,
        -0.4153673796854126,
        0.10206068067140882,
        -0.6668097684881169,
        0.9812598179742801,
        1.5694820737685538,
        0.9843873183245289,
        0.027174952766734595,
        -1.2156021116203284,
        0.4354249580141643,
        0.6701744168425893,
        -1.0403578420921176,
        -0.1849236053780608,
        -1.4202969199139797,
        0.3835537001445435,
        -1.998806141675293,
        0.9895537693952267,
        0.8675820157585399,
        -0.0604854206485288,
        0.27086181879189125,
        1.8022220868292531,
        -0.24242332506322703,
        0.9193752456635773,
        2.2479746058567533,
        0.8184208816879577,
        -1.5022963507043614,
        0.298278587018267,
        -0.4604585301688637,
        0.8048319923983908,
        -1.0909896214432053,
        -0.34908497094315233
      ],
      [
        1.3003513763355106,
        1.633206723726418,
        1.679739568143205,
        -0.3269194388301701,
        0.2949864476846963,
        -0.302434583871842,
        -1.1552724414296527,
        -0.03835933153941142,
        -0.27078552744425455,
        -0.4138703770258198,
        -1.217147601098427,
        0.775815641236496,
        0.5795171394401306,
        1.0946672483423312,
        -0.6531035682613564,
        1.1181154219225042,
        -0.7649030875426863,
        2.3783743206504804,
        0.2691098602550775,
        0.37782818636145427,
        -0.12970729657831637,
        0.6035537934149583,
        -0.23902502050920407,
        0.7695133284529623,
        0.6112840315455675,
        1.8518341263895586,
        -0.28117945244737136,
        0.5433990974089852,
        -0.22684881464981635,
        -1.8444250732693248,
        1.0810338948695095,
        1.1360161866337792,
        0.05503905401934903,
        -2.1262537601438973,
        0.9844602409064619,
        -0.3246396006302227,
        0.8340179330991773,
        -1.4023385682133547,
        -0.854906475497801,
        -0.14714971268203825,
        -0.7205549149122052,
        -0.18319228218313985,
        0.10818612066247274,
        1.7703568239316938,
        -1.31033550854085,
        -0.8235584097175671,
        0.42459649003133454,
        -1.2933532417096203,
        0.15682208764253208,
        0.8789599174814097
      ],
      [
        -0.8354996838198219,
        0.05670992762228616,
        0.9759742311040394,
        0.532013736795617,
        2.1508401730024724,
        -2.2656785713294627,
        -0.8156477745644981,
        0.6073225664094266,
        0.9553535785049798,
        -0.5711941429541266,
        -0.8055490869986767,
        -0.37250229753525005,
        -0.4736418832084078,
        -0.10999600045668922,
        1.4800897727431297,
        -0.016787213838984457,
        -1.1201350629047535,
        0.3346214171079847,
        0.6619409419192367,
        1.7242651109998912,
        -1.7375656943672257,
        0.7344192239931707,
        0.37022446895600963,
        1.694065921380233,
        1.2414313691300123,
        0.8134832694922753,
        1.125067467880218,
        -0.9815294538056177,
        -1.6131052007009739,
        0.05502054884890408,
        0.2244721571041901,
        1.0704923073835162,
        0.5335129099736434,
        0.964353599089182,
        1.9402374165033984,
        -0.04245570860374123,
        -0.6641845832414177,
        1.6588130664552725,
        0.8555428534886281,
        0.3973018439330504,
        -0.28879222196663656,
        -0.0013328718725440251,
        1.4011881916915996,
        -0.22315280292930942,
        -1.1579687184246563,
        -0.20390867911616997,
        -0.19936926681595754,
        1.3022010507587607,
        -0.6372680414751531,
        0.24425782507782387
      ],
      [
        -1.3534935688278698,
        -0.005280577990370575,
        0.6539062328149382,
        0.48437229354011063,
        2.161795352683513,
        -0.4042939869737763,
        -1.5384815605650894,
        -0.18277047745159017,
        -0.8371562931577585,
        0.054654830143565945,
        -0.5628700191304673,
        -1.8188956796446558,
        0.5154660568953332,
        0.7273922991943853,
        -1.2614629164182354,
        1.7692638617900232,
        0.6605071778256636,
        1.100660879663369,
        1.2973361786308795,
        0.9491650411453376,
        1.4005370154857766,
        -0.0329563239022908,
        0.8524567240074218,
        1.271049682272184,
        -0.31055752041953033,
        -1.8249541033380063,
        -0.5886683961520229,
        -0.874761519739098,
        0.833865563422224,
        -0.8592075472374391,
        -0.42187648657426896,
        -0.5087765406513908,
        -0.820695221369237,
        1.180582269783093,
        -0.17845624966013623,
        -2.557359141095706,
        0.48938012243934753,
        0.9473902146244497,
        0.5358753133808831,
        -0.09412416144205739,
        0.8302070918367307,
        0.5985963268168969,
        -2.4027188161558923,
        -2.2810317996139253,
        -0.947478192454717,
        0.4267375398597034,
        -1.4376545060285706,
        0.00512977085640698,
        0.2974216571891779,
        0.586228196571295
      ],
      [
        0.37427055159356076,
        0.5223142695442673,
        0.1636892426796536,
        -0.6689186313862098,
        0.48817082612013174,
        -0.5667411710167507,
        -0.45031069255400125,
        2.1594667505756546,
        -0.15434539153674556,
        -0.8576537704095598,
        -0.650525268343173,
        -0.06373323502513967,
        1.4864217911679705,
        1.1271010900056848,
        -1.9784780492509897,
        0.3736762622700508,
        1.3439723110554838,
        0.9038832477119682,
        0.7635649189477172,
        1.1537566524709302,
        1.4381886737533636,
        -2.3358349034163015,
        0.22125085814336892,
        0.1562769537646008,
        0.020360014941522443,
        -0.9839755150500434,
        -0.15225850301641028,
        0.4668591248640128,
        -2.0733785171793992,
        -0.23783550023229827,
        -0.5471023225719204,
        0.8009003218177173,
        0.6763588219040337,
        1.0587091998650147,
        -0.8355733272507948,
        0.8899712846173823,
        -1.6642830777290725,
        0.8951641414181601,
        -1.2030241406293123,
        0.3733608589415088,
        0.21267983630662243,
        -0.5783917151435249,
        1.5831109323470196,
        1.27334022325667,
        -0.6320524591067745,
        -0.28893101415066025,
        -1.0594776076660868,
        -0.6831213929023605,
        0.7676275235133737,
        -0.2556412027401247
      ],
      [
        -0.566541159265838,
        -1.739205713382437,
        -0.8602399728582751,
        -0.21667378899646733,
        1.6581444398377254,
        0.2850339164565597,
        -0.495128141014891,
        0.333093383306713,
        1.2578614825777619,
        1.0458932199322015,
        -0.7953427788405857,
        0.8942670896673978,
        0.6217777043528538,
        0.13546735852305047,
        -1.6971583442764198,
        -0.9011662880878214,
        -1.5294408680120812,
        -0.27119047064956087,
        -0.5767278622957905,
        0.6000352749590643,
        -1.4328507548011051,
        -2.708734272899273,
        -0.5199138377619313,
        -1.6591261158900035,
        -1.9868239082835693,
        1.9650796829928356,
        -1.621202069423412,
        0.37387980780539815,
        0.5534259517950938,
        0.05792791665842388,
        -1.3222326955854764,
        1.7959080635813816,
        -0.263639873713664,
        -1.2662404775149156,
        -1.875881031038271,
        -1.4380666362150285,
        -0.2074999006985159,
        1.3205922315491763,
        0.5668629483906271,
        0.3432749377588013,
        0.618711947190141,
        -1.0754028180137156,
        0.5287420398097317,
        0.7404854671568254,
        -0.4500081400307558,
        -0.32106766355646604,
        0.6865758906094213,
        -0.41328219538291694,
        -0.5098662411625131,
        -0.6953812146248394
      ],
      [
        0.9242584306541576,
        -0.409523202198337,
        -0.4198219120993877,
        0.08078825710800473,
        -0.02887704897979846,
        -0.8710031060062919,
        0.3881899206654851,
        -0.3043167052387317,
        3.358466191088714,
        -0.9908665065106266,
        1.7624387632799894,
        0.8245988244557416,
        -0.5278148963819237,
        -0.5772182681081997,
        -0.6649577313071544,
        -0.949318192561709,
        0.4266001523921228,
        0.27556198439324403,
        0.763426498704679,
        -1.304093477269554,
        1.1409355621554815,
        0.13345016950241764,
        0.8800214406573453,
        -1.6917317221085753,
        -0.7819534741200321,
        -0.13612672898895478,
        0.9081886419242996,
        0.9933579212024399,
        0.30332959571809126,
        0.8267834325400126,
        -0.4214654393208393,
        1.5140900444591652,
        2.1883845722772146,
        0.40367009334332865,
        1.5118529911757188,
        -0.14773465354246557,
        0.9486527798459362,
        -0.8381728210142734,
        -0.3912194213096825,
        0.5021788773347577,
        -2.0424155308135803,
        -0.7140566729599811,
        -0.353868982081327,
        1.21159592463619,
        -0.3360500462595356,
        -2.4346349638851326,
        -0.8753062089288371,
        1.5361380035123575,
        0.9660849325915839,
        -1.3241076270818417
      ],
      [
        -0.2628860165185694,
        0.6611795635228283,
        -1.4657427234163818,
        -0.07596822385538463,
        0.089540125697099,
        0.33333010485103964,
        1.8849066126043201,
        0.9245121435328416,
        1.5301396135559258,
        -0.020243014239672247,
        -1.0549005364283572,
        -0.12255496685987441,
        0.6084222528179729,
        1.023142576127193,
        -0.758792462732811,
        1.323140820739252,
        -0.24773217223772992,
        -1.3726324769954914,
        -0.26364014471331276,
        0.5680796150919922,
        0.9233972994718445,
        -0.04874398246929062,
        -0.6133632098599738,
        -0.48988199996983883,
        -0.014728560055712965,
        -0.002868197273980859,
        -0.8052356339011965,
        -0.04626507686031476,
        -0.49061330325455643,
        -0.4798575611184669,
        0.36942475456340346,
        0.23281625773535797,
        1.1796356371006922,
        0.6302923732520379,
        0.7462162322617127,
        0.43829355314420876,
        -2.054326325155096,
        -1.461478658701126,
        -1.063860118989899,
        -0.9408194931109468,
        -1.0013087004452037,
        0.7730312285649363,
        0.14209377339280418,
        0.4353193801760344,
        -0.2626868889898531,
        1.3652447437144455,
        0.35297712134574216,
        1.3647388945943708,
        -0.6962196689734789,
        -0.6004613489774483
      ],
      [
        -1.0774363274065664,
        -0.8958023835578386,
        -0.3760136988967592,
        0.5966355746160038,
        -2.080269241233008,
        -0.08464439442016443,
        -0.6655512624835155,
        -0.3878583550061117,
        1.6719856340077268,
        -0.24396747314888698,
        -0.3580505609189493,
        -0.48831602114921513,
        1.027191508930653,
        0.8497054340690053,
        -0.6855232261256113,
        -0.5841159614310145,
        -2.0343288108710063,
        -1.50402081933213,
        -0.37339170004810096,
        0.06615982840591339,
        0.10930786244062927,
        1.0905324417870899,
        -1.441875062395279,
        -0.116430506427101,
        -1.0547898603865604,
        -0.9828818744878339,
        -0.6544058275659863,
        -0.43124056616754647,
        0.7022000395613032,
        0.28436558672915996,
        -1.4997321042457112,
        -1.358460154888581,
        1.628724310098793,
        0.7210865225829712,
        0.20157289605400858,
        2.4325532638366756,
        -0.00900052490872124,
        1.4055647419000517,
        -0.7300128542611439,
        -0.21581917542817125,
        -1.1358687215749597,
        -1.131001438977003,
        -0.08760695421397247,
        -0.15676452780797118,
        -0.6150703279279205,
        0.4898177047622633,
        -0.09889751340606891,
        -0.20251062063224454,
        -0.3212638783596425,
        -0.6578302773575265
      ],
      [
        -0.6355311196981138,
        0.5369168819176279,
        -0.3664768733204323,
        -1.9137884992449496,
        0.44444919012702927,
        -2.4110747037652325,
        -0.8798788815846007,
        0.8518787330180415,
        -1.0760186448591487,
        -0.44286138190371216,
        0.7445437518735069,
        -0.7349129930602611,
        1.0525990825350335,
        0.32944677219931723,
        1.2398846131081336,
        0.7545392947972884,
        0.013470123586799715,
        1.0615220892192534,
        0.6421797621885061,
        -1.1509086174587715,
        -0.039929587386577654,
        -0.694277229561619,
        0.6622945680970999,
        -0.6495875768002003,
        1.1091460136391462,
        0.030539906615449138,
        1.2291836489323955,
        -1.2056188438114965,
        -1.6634729042707783,
        0.047780710590884366,
        0.8665751823546857,
        1.488004781906541,
        0.15009532365815023,
        -0.1487934660258768,
        0.3855543494654233,
        0.459730117049056,
        -1.6360580741563175,
        -0.7072364529748768,
        0.06554355960795077,
        -0.4431069080958538,
        1.545534481126743,
        1.2002144458575659,
        -1.542106154561527,
        1.3141299245487572,
        1.794621649647475,
        0.1247731968141685,
        1.7791516598800978,
        0.13335617922509443,
        0.8248885992675594,
        1.6568279019225933
      ],
      [
        -0.5481169924934373,
        -0.33153363501570343,
        0.4029353070371799,
        -1.247328280828299,
        1.5076950068232808,
        -0.3322452051234921,
        -1.9788298956168464,
        -0.8886525050467666,
        -1.347024842012891,
        -1.443228530161062,
        0.017886808959471,
        -0.6580271971987594,
        0.15156157088479766,
        -0.8017356252043051,
        1.915944488715669,
        0.10492982745088862,
        -0.34901468589109563,
        2.0829366763695023,
        -0.6711218873650728,
        1.3042927264984474,
        0.5572560271332384,
        0.005349947400238468,
        -2.0809453000331306,
        1.3345021640186432,
        -1.7681673028995404,
        0.9071500338328718,
        0.13085708223485334,
        -0.09771276702950646,
        -0.49822631533056844,
        -0.5080104171977881,
        0.042412654430453195,
        -0.9850439378065163,
        0.7214618250896149,
        -0.10291936632697454,
        0.0014973807532367696,
        0.47781149041849724,
        1.2335683279768712,
        -0.3038681617863104,
        -1.0432650300481408,
        0.40867575892784147,
        -0.3117434666044954,
        -0.8574156807250864,
        -1.4718754445959823,
        1.9953179134638177,
        -0.7922551775962434,
        0.16193719819007008,
        0.41204437947477796,
        0.5541906992656731,
        -1.3626968109401578,
        0.05869427214404635
      ],
      [
        1.3090714738354394,
        1.6206684621195968,
        1.2116871204376611,
        1.078010970087745,
        0.6537390745181995,
        0.4060323110598592,
        -1.1625156707434159,
        0.11045461133983227,
        -0.434134582655983,
        0.0794481814302171,
        -0.5329051129453255,
        1.3763708635400507,
        1.6576269194773035,
        2.7632044786656613,
        0.5037307625381628,
        0.19120503380108006,
        -0.1842067985687011,
        -0.1661250232428113,
        -0.9296988065675382,
        -1.4737425263027235,
        -0.20732670297351655,
        2.515711629053639,
        -1.0231395141594855,
        0.20906349401431437,
        0.14246246171819663,
        -0.597568843010083,
        -1.5954251198101892,
        0.9772743289518984,
        0.5310650720348097,
        0.999732453150674,
        0.5172153723186755,
        1.5060499852463314,
        0.2685592650076349,
        -0.012947377545726809,
        -0.3094680784737486,
        1.8592618250735775,
        -0.3872148823702558,
        1.4132584295175243,
        -0.05923007470167897,
        0.5318272314832121,
        -0.9366391998769251,
        1.874113918462564,
        -0.6279502657875804,
        0.33605261489446653,
        -0.07288157855984026,
        1.8158013922995802,
        -0.352167021486031,
        -1.2612116011054182,
        -0.4256783968344616,
        -0.03989536564806447
      ],
      [
        0.0531386539540215,
        -0.7122807944569478,
        -0.870342971126527,
        0.49273754731395925,
        -0.9832133966017762,
        1.0047358818341814,
        -0.31895096927519373,
        -0.7511477724574874,
        -0.5158905921970293,
        -0.15053868718361615,
        -0.19510716182216356,
        0.002002329802612569,
        -1.168665605597668,
        1.2700305220572352,
        0.9933421409130181,
        1.9592400708913549,
        0.09323090473465821,
        1.8681806418568745,
        -0.30209316787910967,
        0.17841680810933386,
        0.5631395575573025,
        0.8992722755270455,
        0.6319816341189639,
        -0.5734271294773016,
        0.6653866428035853,
        0.4367451278692698,
        0.18698316121309366,
        1.2581949751511146,
        -1.5730565566322057,
        0.47832646598702067,
        0.8056440569315334,
        1.2174896488845213,
        0.38548092991644756,
        -0.04438966348805582,
        -0.37857211874350705,
        -0.6640381065800751,
        2.0005577023005197,
        -1.9779685533481637,
        -0.03423723659821405,
        -0.8601993860042549,
        -0.682498979561503,
        -0.32377126139114193,
        -1.037308160026817,
        -1.182479761204096,
        0.007428796332142019,
        1.2958443734776524,
        -0.02796737032152549,
        -0.4238502314616533,
        0.09188130129090911,
        -0.8369793013255888
      ],
      [
        0.21546365643717702,
        2.0338622472650294,
        -0.15230157566788738,
        -0.7817015723415003,
        -0.420650674239197,
        0.9441133181439231,
        0.14118430021526526,
        0.8442198630463313,
        -1.3318458599717373,
        0.18662398688360401,
        -0.7939379048989181,
        -2.6653769285932323,
        -1.8732220575828362,
        0.8133115778315512,
        -0.848847167107477,
        -0.5282256485612888,
        1.6591785493619398,
        0.3432287514219539,
        -1.0161634685807952,
        -1.5086947019675037,
        0.4936387500925667,
        -1.2356696169895254,
        0.7980934076689393,
        -0.16096110599957722,
        0.40498644721153243,
        0.0914271119560739,
        -0.43219455580588356,
        -0.11636018262183855,
        -1.1033833678049179,
        -1.1885548762655382,
        1.6047879266895806,
        1.7045901962771566,
        0.39471101361582955,
        0.2703096645249273,
        0.552405936698155,
        2.237564064324735,
        0.31258303956572886,
        0.8236834498092753,
        -1.2325057208795545,
        -0.13383684504309112,
        1.224852428229638,
        -2.1986892945600367,
        0.9609345701535756,
        0.9569270555377563,
        1.3093626621716756,
        2.1312386397241374,
        0.21637032157107255,
        0.236644767860549,
        0.36921507683483734,
        0.8641905767371005
      ],
      [
        0.46747163472715375,
        2.778644055519837,
        0.4617995592218217,
        -0.724541792669175,
        1.3124286071785218,
        1.390926797113231,
        -0.09380473510981265,
        -1.1106209946436354,
        -0.09023919460095815,
        -0.4278804192746478,
        2.4111294847830673,
        -1.4100110840437976,
        0.3194268263567973,
        0.9556639394859556,
        -0.35697033780410925,
        0.5640958875486333,
        0.10182842689121062,
        -0.5295977366496031,
        0.2785714112295238,
        0.45138892366323025,
        1.4614762472961282,
        0.5209302585147192,
        0.5814591503218768,
        -1.3937868210304103,
        -0.4163089353231704,
        -1.6383263078411126,
        0.299441171088313,
        -1.1691900806085085,
        0.4011633188055193,
        -1.3402160012957138,
        -0.6860849217890426,
        -0.24925849386973625,
        1.548849216957893,
        -1.040522988391354,
        -0.5928984793127421,
        -1.3445838271694377,
        -0.14386985358884893,
        0.7997434732675571,
        0.892532001643822,
        -2.0882857693968053,
        2.7613578376894754,
        0.9967632424102423,
        0.47753047734745974,
        0.7433719223670567,
        0.5909190132112744,
        0.4627486596261661,
        0.27368851432229585,
        0.24477590939422508,
        -0.3518954361977062,
        -0.5821600451714739
      ],
      [
        0.2171696565875051,
        0.0707756839841628,
        -0.34976470682386057,
        0.2466143760000916,
        -1.501639630868215,
        -0.44749410418269314,
        -0.20300815185163637,
        -0.25529303317824975,
        -0.4251170128340492,
        -1.384466833547124,
        -0.07421867574455882,
        0.19318055771963202,
        -1.1403482201075312,
        -0.5852131624624912,
        -2.859954602671706,
        1.196065513484691,
        -0.5382225759894483,
        0.9357613287386024,
        1.7482831329911939,
        0.4926673865878089,
        -1.240926929555688,
        0.9222994769951769,
        0.8367057305964571,
        0.20596997621517732,
        0.4904628932203873,
        -0.8031801141719548,
        -0.38432125162148195,
        -0.07674827423505758,
        0.635049633809401,
        -0.6294540460340069,
        -0.7267786338701362,
        -0.037233095258684394,
        1.6849049315935383,
        -0.4495280659163489,
        1.9200252545820646,
        0.5551820456042579,
        0.18426315316636285,
        1.5374958169951431,
        -0.5893726895632395,
        -1.573750539270826,
        0.09237647370197356,
        0.8124540084409841,
        1.6252036475591354,
        0.9083758139303741,
        0.2566390210714521,
        1.332286442448003,
        -0.46236747950061163,
        0.9261870103463682,
        -0.08777160747809319,
        0.9950711824981184
      ],
      [
        -0.6552578850638392,
        -0.2977548981470264,
        -0.2104050231578801,
        0.9347414265785173,
        -1.639364657027953,
        1.162056707949215,
        -0.5377017318348818,
        1.2698424105965707,
        -0.9655987695493697,
        0.9080711180213965,
        0.34871119131391554,
        -0.7612813268777405,
        -2.5095272200321816,
        -1.3219789730569242,
        -1.2469268687731871,
        0.3579554918852912,
        1.0743849812330637,
        0.31260160251101005,
        0.19566453534972608,
        1.3918393571547427,
        0.6742755303569089,
        -2.224439470218201,
        -0.8041088317392975,
        -1.4239090836319004,
        -0.71647312769916,
        0.9698440648137807,
        2.446430019296581,
        -1.3310547668347334,
        0.897163393527598,
        -1.9880050147418011,
        -0.8477957215164886,
        -0.34706724237947345,
        1.7694721954989894,
        -0.676545476095759,
        0.7883190284215562,
        -1.727358023011539,
        -0.30362531989200015,
        0.3105261116209623,
        1.1606560106923036,
        0.05456563483150304,
        -1.2579067602125318,
        0.44544080788695145,
        0.32081496025065204,
        -0.6952068375141136,
        1.677302949216951,
        -0.4648668410618517,
        -1.0437887849110303,
        -0.09374059404821672,
        -0.7368156489234544,
        -0.9947094904141621
      ],
      [
        -0.7526038637539813,
        -0.5396460372665691,
        -1.1580317892114749,
        0.6135580627115131,
        -0.6419494348557113,
        0.15997161390252068,
        -0.0340997768190841,
        -1.5699944315528565,
        0.8525780660385189,
        0.47167288490771947,
        0.17667289755669655,
        -0.47169566259354345,
        -1.4389328958934389,
        0.6923641950396421,
        -1.031657893788813,
        0.30734788451889034,
        -1.046586288792711,
        0.21833861753093484,
        0.5879292538700133,
        0.23408329262341143,
        -0.7075699533604318,
        -0.7902163747416618,
        -0.6818701532016898,
        -0.6378935841772524,
        0.5096755870790567,
        -0.7363133073929705,
        -0.7416289519031184,
        -0.4731023975966835,
        0.34424925628507086,
        -0.18011072936570466,
        -2.3279981249009043,
        -2.2966584749821957,
        -0.213413326102941,
        -0.13622818409528414,
        1.5008653402246057,
        -0.9799709749189704,
        -0.18037771294063087,
        -1.0973856517726919,
        -0.37734050511943557,
        0.2834208661826523,
        -1.0431700070135672,
        -0.3748204471436421,
        0.6122479288571692,
        1.1432416101236034,
        -0.7928432444102114,
        0.06412549788363,
        1.3697242150492177,
        0.5277896919811128,
        0.2862541699611021,
        1.8109882403529984
      ],
      [
        -0.03173134083943776,
        0.06760585338947746,
        -0.4271586236421257,
        -0.3161222985562049,
        -0.1212691733365287,
        -0.15341162354939583,
        -0.6374304595561012,
        -0.3238681257175666,
        -0.24783529947654798,
        -0.45085710497002074,
        -1.3073918228418508,
        1.5283199865803165,
        -1.0006756361628697,
        0.2844766387894763,
        0.4831557296001605,
        -2.056390101079825,
        1.3088531094699472,
        1.4754064184900977,
        1.9186144950720034,
        0.016414480392681136,
        -0.4075161401472721,
        0.09728334032013072,
        0.287075921773019,
        1.3313376949958755,
        0.2673020665077408,
        -1.2143250624908162,
        0.06338653059012714,
        0.055323574052685495,
        -0.44351635356337055,
        -0.17586771677099833,
        -0.6820607362495572,
        -0.8227082285427112,
        0.39182088167915274,
        -0.9328788242929337,
        -0.628523622188599,
        -0.13149560611780733,
        -0.8437903036472881,
        0.5029374373111869,
        -0.8942679645101318,
        1.8456805648888355,
        0.539350985382164,
        -0.3054948283960258,
        -1.5838632865528581,
        1.580177675326593,
        0.8515459564229385,
        -0.17640104618422164,
        0.4532113244186142,
        0.10276760328652491,
        0.11076242224702094,
        0.902274487103589
      ],
      [
        0.42036555579840923,
        0.1906254164659753,
        1.1556551663261792,
        -1.1546885507851798,
        1.36749565331409,
        0.42172029989047516,
        1.4042247083474142,
        0.5796796263475344,
        -0.4713743286332424,
        1.3526705154128398,
        0.29702403735637123,
        0.12221353926626058,
        -0.2270047982525409,
        0.3691119819865506,
        0.20777115281404313,
        0.2762042388853505,
        0.2730889154153062,
        -0.9329110216608982,
        -1.5859092176362675,
        0.34028990722883723,
        -0.25751602681670727,
        -1.032739053873203,
        -0.5379712941527344,
        -0.10413321852940063,
        1.085379025992914,
        -0.4154501135329785,
        -0.3748987842110006,
        -0.14428692323259454,
        0.15022294729796876,
        -0.21473482179169942,
        0.6027762763602019,
        0.6166382000943454,
        -0.5557618876163982,
        0.7773326037375756,
        -1.293386000848826,
        -1.081029993758319,
        -1.3427641314891272,
        -1.022275298806582,
        1.4971897231225366,
        -1.346359016584503,
        -1.8580232911394752,
        0.4454664885970172,
        1.3568708625175003,
        -1.7094195551050533,
        -0.4747516867841833,
        1.90937727251583,
        -0.338120509592514,
        0.39146299781042115,
        -0.4730797655559008,
        -0.6766561564640986
      ],
      [
        -0.6491976540639046,
        -1.6022386533145734,
        0.14270667325604572,
        0.9971405434016161,
        -0.009079760747097465,
        -1.4773965642463813,
        1.3740169666533744,
        -0.4566313784076655,
        -0.011360763042192768,
        -0.8690022513453581,
        0.22946527741763356,
        -0.5492474279381072,
        -0.3407273693764763,
        1.078721434731309,
        0.684244406128703,
        -0.19723526263228672,
        -0.044597221183443676,
        0.41706446767570704,
        1.1082833944072543,
        0.08235469945527828,
        -0.5494402875556605,
        0.4332949993015363,
        0.3241070764300238,
        -1.1640363235301472,
        -0.5291123898702159,
        -0.5716682322273299,
        -0.555715299635048,
        -0.4332683854092845,
        -0.2189650896872903,
        0.2522567697077988,
        -2.2868835088361443,
        -0.11120627176075135,
        -0.17649422173640433,
        -1.120424473777219,
        -0.8711480389565455,
        -0.9251528882665295,
        0.44744021485444424,
        -0.3254372506481661,
        -0.20582494322557926,
        -1.601254658295291,
        -0.5273533122839438,
        -0.049007086154105574,
        -0.21082215728877599,
        1.033399624334505,
        -1.624296916094968,
        2.792112885944671,
        -0.9607454220569142,
        0.9025696351809706,
        -0.52187591916746,
        -2.0770661441229645
      ],
      [
        -1.3643309081318216,
        -0.2427617028122216,
        0.2271197243956338,
        0.06340035936156174,
        -0.127793142580615,
        0.9566740322867971,
        -0.059424099082367,
        1.0384412357311417,
        0.4387197099144723,
        -1.1763183601904692,
        1.1130767521161222,
        -1.5319442647962282,
        1.1140076442758358,
        -1.2573762452256494,
        1.745498002187354,
        -0.030240453272622578,
        -1.3205267606090358,
        -0.25821723454954143,
        0.8597412542009384,
        1.4475148054725522,
        -0.793129181663052,
        0.7605949319816142,
        0.1825435595316468,
        0.7135549340230677,
        -1.225816598405536,
        -0.3279142369062688,
        -1.4597472777873697,
        -0.3159348420720173,
        -0.645639751478331,
        -0.8041022695638128,
        1.132593868562522,
        -0.2570736170010064,
        -0.37903061527644066,
        -1.3020198138000378,
        0.8151382534571359,
        0.6935830696179474,
        -1.2603110549848056,
        -0.7122813811600427,
        -0.3829958517540814,
        -0.2609815938405033,
        -0.2643754694385768,
        -0.14263972486552826,
        0.22816412024621843,
        0.35027474024131666,
        0.11611105428923793,
        0.37289813213956763,
        -0.9253379573703664,
        0.39092111653278333,
        0.7633427542970586,
        -0.3183055122516103
      ],
      [
        2.618784707922203,
        0.6557473688167264,
        0.2562616752383842,
        -0.444796803726289,
        0.019273766426989015,
        -2.0849233848435214,
        -0.07834218628928784,
        1.2393379146650607,
        0.25913797382078896,
        0.052270315090721144,
        -0.148603551439206,
        -0.24621504976551095,
        0.5287500619926582,
        0.23572040378157344,
        0.6477320135981345,
        0.5665706350375265,
        -1.2855507957074608,
        -1.5301343422212828,
        -0.3083954372152837,
        0.9649789111769768,
        0.19438997889261564,
        2.383416156907989,
        -0.9610467226840905,
        0.01813275918772225,
        -1.1229491007627674,
        -2.0377579827916756,
        0.7280949486997735,
        0.5070513091780682,
        0.31896238619480566,
        0.6568958300938609,
        -1.0641243349941705,
        0.6344293519662348,
        0.17472913198363346,
        0.9136343147999221,
        -0.9562249442724988,
        0.6426351769420819,
        -0.2715813698511021,
        -0.2509490984431206,
        -0.13062019301025918,
        2.052665198023094,
        -0.19107034911549195,
        -0.020070965892997752,
        0.7100915220739749,
        0.23180249834505604,
        1.4769329670462827,
        -1.1686586088341488,
        -0.27097813089044914,
        0.12079815557970168,
        0.34509508176926823,
        0.22002404104717654
      ],
      [
        0.5415882252781776,
        -1.285177570988345,
        -0.07868733416133002,
        1.0854670491848772,
        0.9213752191213528,
        1.7916664617760072,
        -0.18677158420656495,
        0.9018841369116881,
        -0.05998376168683755,
        2.1258557631248616,
        0.22910214486866068,
        0.11502403329017293,
        0.36199818960043156,
        1.6216484858886049,
        -1.1509288448356418,
        0.2762318719364422,
        2.19419935732795,
        0.07044481256547201,
        -0.04139320724620416,
        1.6511872032420143,
        -1.0884993783750179,
        -0.12884787489892335,
        1.4495009260298204,
        0.7179331333651862,
        0.3929356292710522,
        1.962796098424403,
        -1.2884833140394405,
        0.6029197327387161,
        -1.0282507018967195,
        -0.4594190192081777,
        0.1263221981324002,
        -0.5791674067910483,
        -1.5665585095940218,
        -0.6299661859004503,
        -1.583933524171937,
        -0.6714643217167255,
        0.22150510769016837,
        0.40301564485480623,
        0.4872945954967511,
        0.6232781213167939,
        -0.1513883795480972,
        -0.7076698695127769,
        0.8009686746590455,
        0.9319379326240533,
        0.7576986337302732,
        0.14577823190668424,
        0.24284568806942436,
        1.0138696055621663,
        2.3806955341708993,
        -0.520701419404297
      ],
      [
        0.43969418337319155,
        0.24813247873878586,
        0.06516999817162096,
        0.22092045818820086,
        -0.8080931501832445,
        -2.1545971528097083,
        0.21227491840567386,
        0.14205918191923084,
        -0.61868354079033,
        -0.2663798109121611,
        -0.7045054100100131,
        0.9558434800513409,
        1.5941383422564326,
        2.9175761120323567,
        -0.469163857442642,
        -0.20413575961949135,
        -1.8835597977831025,
        -0.8134651912819464,
        -1.3492205559620785,
        -1.6212728358117376,
        -0.7238828024898898,
        -0.8160122705477134,
        0.0032255576546334273,
        -0.8631027100149906,
        0.6564043400790563,
        -0.22662207825555922,
        -0.46224287540892095,
        1.2207691219143841,
        0.5404394347347748,
        1.4206329696570674,
        0.9305564142059826,
        -0.5594920272322442,
        1.7169382257379862,
        -0.06623903423194437,
        -3.173071307674169,
        0.708375792153737,
        0.5371213420163773,
        0.6901786400865952,
        -0.7149731478196897,
        -0.15711094916289975,
        0.15185741126367147,
        0.4162612715395329,
        -1.7894514562863135,
        -0.0500858641429856,
        0.7042359198379395,
        0.31401589725376045,
        -0.6366022752497256,
        -0.7811495311834551,
        1.5525013573433843,
        0.5352938585192869
      ],
      [
        0.018146915534035867,
        -0.051931543246039526,
        -2.0958725496927677,
        -0.5071032776726374,
        2.3369236744972346,
        1.1665536391798281,
        1.9663816648063857,
        -0.6734000199710029,
        -1.537933048001408,
        0.244649858187153,
        -0.9697725153682016,
        1.0319435827189456,
        -0.1745331385636652,
        -1.3015511363185759,
        -0.6633492571563323,
        -1.1543068693991583,
        -0.19168170683325447,
        1.0897329574710282,
        1.3952389807361172,
        1.1770834863345179,
        0.4217255947821686,
        -0.9107661724273044,
        3.367602265449825,
        -0.8612660948387572,
        1.197012940272838,
        2.8511029059571857,
        0.19856834440049953,
        2.9511538344266377,
        0.46928021826828975,
        -0.9108018024852825,
        -0.02299269609005783,
        -0.5551761716655037,
        0.5979602702203609,
        -0.6896952758947708,
        -1.4529914088064608,
        -0.16930673488976494,
        0.7780062485604946,
        -1.0026070771607591,
        1.7262349502637093,
        -0.4465612905281269,
        0.7903066711597936,
        0.8945560663956534,
        0.5962130010893153,
        0.03361669858804375,
        -1.01690312291148,
        0.767633155731706,
        -1.4956390627357439,
        0.2995188967301338,
        -1.7030256313881558,
        -0.3946031146807446
      ],
      [
        0.38712663252825075,
        -0.7292298894427484,
        1.587923540406128,
        -0.18111802785493752,
        -1.1050343356681183,
        0.15091797059097078,
        -0.9867261582356717,
        0.0005148947726777409,
        -0.7218342184362491,
        1.4970618421063782,
        1.2613224960258584,
        0.6573100433758541,
        0.665114947068286,
        0.005008646704945776,
        0.586084843621208,
        -0.03582282292805536,
        -2.241037940909448,
        -0.43204939986319,
        -0.10726749163746502,
        0.1374033949863368,
        1.2221366733771266,
        0.07384663210912175,
        0.9234301819049391,
        -0.6545018758077189,
        -1.5503781214981862,
        -0.5319287168128438,
        -2.5276708620200665,
        1.141184408160857,
        -0.5648517258095351,
        1.1356478925918403,
        -0.8453916284315852,
        1.0044392620196052,
        -1.3647411283302386,
        -1.552924456267719,
        -0.33208628335659707,
        -0.2951518359635478,
        -2.169929384571315,
        0.1599009536278618,
        -0.4523535192566081,
        -2.446391458703385,
        -1.3398816429232063,
        1.0554452857874796,
        1.7554563044098057,
        0.8341605897133704,
        -1.2030915612046238,
        -1.274987860030623,
        -1.7095778247640678,
        -0.17083782804786043,
        -1.1328593491887677,
        0.5063009991335751
      ],
      [
        -0.1750975568257456,
        -0.9870232145616458,
        -1.4662802943079152,
        0.6628822009144301,
        -0.330243866890758,
        -1.3830641992646806,
        -0.6823880406704398,
        -0.4860145500816205,
        0.44446724192275133,
        -0.46056091085717243,
        1.0441132614045414,
        0.27732275174866555,
        -0.4185290045009613,
        0.4132424994944606,
        0.00539482476431233,
        -0.34268543805650575,
        0.5741699184167095,
        0.45304720812995597,
        -0.26379609670696536,
        0.20747561335884726,
        0.015636520187417794,
        -1.1935813648230282,
        -1.6090602404029386,
        -1.4071867919971888,
        -1.5945024955369203,
        1.2138081471508557,
        -1.1209733549212766,
        0.5589840557455334,
        -0.03060306587279667,
        0.7386391373429657,
        -0.4128849360416234,
        -1.1261710074450315,
        -2.0780947735474693,
        -0.4273127557188417,
        -0.8743042908954356,
        1.0647336221655872,
        1.5540399228561967,
        -0.1452149015916756,
        0.045532313670912254,
        0.8657323150732512,
        2.564376536253653,
        1.6206435355879,
        -0.6648615349885993,
        -1.0645166755639897,
        1.1898572976397161,
        -0.5672152553913303,
        0.8484104895948289,
        2.4670156947193114,
        0.1338017761660717,
        -1.4207687117783947
      ],
      [
        0.11207818578704022,
        0.14761029852140095,
        -0.2529217452533625,
        -0.41644569507669604,
        -0.2043296850388161,
        -2.29642239236695,
        -0.3797502249779194,
        1.3713160873960273,
        0.14333343984573407,
        -0.7523138394609223,
        0.9218007293668571,
        -1.35782075847587,
        0.1273047359881648,
        2.3126982776299734,
        -0.9783604345073481,
        0.49605275624400064,
        0.6627666670471357,
        -0.10412029023872746,
        -0.1425479325515335,
        0.08317951233461701,
        -1.782334625215912,
        0.6410956849367412,
        -1.334014470119358,
        -1.2159178662513606,
        -0.015801497007309647,
        0.7985954099644231,
        -0.4288850542801162,
        -0.7400211941199296,
        1.84292597372076,
        -0.20622293932925992,
        1.7193542897587832,
        1.1193904546951385,
        1.043705811413606,
        0.18713066899779263,
        0.5490626836899315,
        -1.067212482895326,
        -1.2234400221767792,
        0.24969799007877247,
        -1.2618642935176534,
        -0.09630304658071438,
        -0.3693030940449663,
        -1.2220193570180526,
        1.0328837516164755,
        -0.51775827763574,
        -1.5273782320589568,
        0.23974218190972957,
        -0.8473866517896361,
        1.1729553691338912,
        0.6141323444447552,
        -0.305895674952345
      ],
      [
        -0.532205734333449,
        0.33872920097793907,
        0.14579545888084813,
        0.969152448817264,
        0.07106049968409413,
        -2.588764523250949,
        -0.8276857598778464,
        1.0135565171880876,
        -0.3683794175424083,
        -0.2058003843245731,
        0.23085667593294973,
        -0.9460987806291923,
        -0.04967298903405637,
        1.3191541581551836,
        -0.47822521699635684,
        0.41284521041101313,
        0.04021324576555298,
        -0.25504937588605114,
        -0.4795978829197148,
        -0.2626018190111837,
        0.4888150948604449,
        0.3005049043845075,
        0.3082906555906003,
        -1.6984798691538732,
        0.3037357893183835,
        1.0355025780490017,
        -0.5710966458208899,
        -0.5293877343024838,
        -0.8511042605411596,
        0.5211145616547098,
        1.0044669752778939,
        -0.008851055903034396,
        -0.5094634349354051,
        -0.5375610614966935,
        -0.8551030037467243,
        1.2602901457644715,
        -0.36490732374145785,
        2.307026676961303,
        -0.22480315684031432,
        0.6770950761980177,
        0.31674935282807065,
        0.7871331476903856,
        -0.999500034190733,
        0.22731767369214864,
        0.8602803557684364,
        0.19136723522685292,
        -1.2217234332129758,
        0.5948814634925492,
        -0.4784415333321516,
        0.7338308740031716
      ],
      [
        -0.1215694188118963,
        0.16193356287571817,
        0.4771280860675661,
        0.6661852958041422,
        2.022745834202159,
        -0.2510788688736486,
        0.3998587991066312,
        0.5345971517872601,
        -0.7356592410561572,
        0.6421151533490707,
        -1.0165069711900976,
        1.5587072919849811,
        -1.402702928030056,
        0.7620976491559545,
        0.34977140445124283,
        1.117087336091166,
        -0.28535398203556217,
        0.6080997207735916,
        0.20212945991890804,
        2.0286739155806166,
        0.38986008017866325,
        0.38288616210010207,
        0.052582089137957325,
        0.4985553845095116,
        -0.5200992401978661,
        0.5572418151054033,
        2.059894930647169,
        1.2227919408644095,
        1.6929835494701273,
        -0.7992908977359727,
        0.6560888998856675,
        -0.38603422930209247,
        -0.41790672345078733,
        -0.1865217681976406,
        0.8092404511662412,
        0.39548662047876504,
        -0.012341284461953907,
        2.227633627927318,
        -0.6317693941825347,
        -0.544277715471946,
        -1.5664491313426485,
        1.1264377544096529,
        0.30885373859853205,
        -0.007002547531220788,
        -0.07133468081998162,
        -1.0804559156580804,
        -0.5875976184420986,
        -0.6686868478585701,
        -1.4357236756970562,
        -0.4946821263944292
      ],
      [
        -1.8142195239662902,
        -1.163629758696106,
        0.34328720463121465,
        -0.5404285820533524,
        -1.0044157302689338,
        0.3070788518013305,
        -1.5188838574476844,
        0.7871784527375496,
        0.972288061633579,
        0.37102145229387196,
        -1.290805680876436,
        -1.609385154078657,
        -2.1469814119353745,
        1.9107857423405832,
        -0.36534169108895,
        -1.2324178836612172,
        -0.730791371196318,
        0.6501543794128473,
        1.0986655155569234,
        -0.3540035595097604,
        0.5330509357072251,
        -0.8294848551829567,
        -1.1417421696403458,
        0.05332490667821431,
        0.282793467508413,
        0.467540402066968,
        0.4936816350583994,
        0.03484452554612072,
        0.17323125401058476,
        0.9006422448287772,
        1.2364122198059966,
        1.7959963136947115,
        -1.8921061436369266,
        -0.81763708606669,
        -0.21434761236302444,
        -0.10184864530589302,
        -1.441647272780561,
        -0.6952068144076972,
        1.9211996673009146,
        1.6884982601281058,
        0.6427974959966077,
        0.20547044405614043,
        1.0171515303197456,
        1.0305421065381408,
        -0.15573155106285347,
        1.0060351928999158,
        0.1618902180712166,
        0.06351344910998084,
        -0.8902443818969501,
        0.05956849452951033
      ],
      [
        1.3353741270420354,
        1.7090255851383382,
        1.1718898555168449,
        0.6377646980030603,
        2.1050806514157316,
        0.21220954546099102,
        0.9967591672806798,
        -0.04068192671600057,
        -0.365889273028643,
        1.487161082737514,
        -1.08686310224315,
        0.9698584619772221,
        1.614350737142145,
        0.9449405058958321,
        -2.855248222854379,
        1.1935273193094396,
        -0.4263621332620256,
        -2.540195205579231,
        0.5029186501714068,
        -1.1574793822473706,
        0.6252418896883201,
        -0.1722398703024906,
        0.15971735121842762,
        -1.2627406793119862,
        0.3572925445362524,
        -0.5447541578040602,
        -0.7150569777720756,
        -0.008383241034384517,
        -0.31314209205147797,
        0.4390615796143719,
        0.718101902457519,
        0.1816067362187873,
        -0.0728064660560794,
        -0.8405297191534863,
        -1.1720135382513384,
        1.3248570621435252,
        0.024425524829546408,
        0.38657681792397963,
        -0.492588117470284,
        0.7484225681292231,
        2.050280722477076,
        1.0156797903115187,
        0.17390218694080095,
        -0.036670011993320095,
        -0.34650765095337077,
        1.1444028643702717,
        0.43836820341062643,
        0.07050047784149767,
        0.8224171507763558,
        0.38589409402636143
      ],
      [
        -0.048033714786095,
        -0.28880925772247706,
        -1.4468167405463184,
        0.38969992450077534,
        0.8246498869077057,
        0.6972131067313848,
        0.8529129357304338,
        -0.5628472937867528,
        -1.8961241059113938,
        -0.02558866537206618,
        0.4357553511482023,
        0.3610349271616716,
        0.8737650748454178,
        0.42026503781881736,
        -1.7898918718310484,
        -0.8317101034023364,
        -0.28696768312106213,
        0.5336995642950317,
        -0.3963105533394398,
        -1.1594828412035212,
        -0.3469995434397951,
        -1.7221900250965474,
        0.3109363777085191,
        -0.20979407320246815,
        1.6394057795296748,
        1.2758719068822741,
        -2.078976245065652,
        -1.1120597532751535,
        -0.49526411411998156,
        1.8141537879105882,
        1.0378296798932276,
        -0.590280483654466,
        0.060983525978897085,
        1.1018061816719313,
        0.09516969776613783,
        -0.23931225498194655,
        1.0240113326790938,
        -1.208724338438485,
        1.3700702667803253,
        0.3218394047868847,
        -0.3578426091580461,
        0.169308530507565,
        -0.8298617678544157,
        -1.067955775281926,
        2.298728993758624,
        -0.11021675283020776,
        -0.22072426220362035,
        0.3053534567505471,
        0.36397750454060396,
        -0.7926448448948551
      ],
      [
        -1.2684147785527975,
        -0.16678430952722695,
        -0.7652710514971337,
        -0.14759156931004044,
        -0.6013884650007193,
        -0.32137745647095073,
        -0.5298742703073664,
        -0.7833670940941373,
        1.8129754418732045,
        0.5941611055123331,
        0.1906953959329704,
        0.06513520655735235,
        -0.7697560639837653,
        -0.8188530944681907,
        0.001686255285822301,
        -0.05115234695728942,
        0.1945819620515304,
        -0.7183274695347432,
        -1.2053691731966627,
        2.6658446102853537,
        -0.7475047610862059,
        0.6995659294007124,
        0.9067112089657602,
        -0.17207722310371065,
        -1.1278363305226762,
        0.07516319737249856,
        -0.8208005567431575,
        0.6357608392331955,
        -0.5075632184976984,
        2.4105693996323483,
        -0.6478049797799957,
        0.48676193000854523,
        -0.1832832915116299,
        0.46228451026598705,
        0.8506921817352344,
        -0.7031275822985228,
        -0.1389130271489501,
        -0.6674124889631774,
        -0.5388621358216874,
        0.006624411537408942,
        0.4949761853728697,
        -0.13194197611219427,
        0.08876128093430409,
        1.4478613337840167,
        -0.005504956030768066,
        -1.4579248333060788,
        0.14445824206753288,
        0.9141919363616844,
        -1.3880067154737836,
        0.09305401969736757
      ],
      [
        0.23753088106643766,
        -1.3304648621315804,
        1.7578373920556536,
        0.9246739796688394,
        1.25852466788312,
        0.529316401076283,
        -1.3560614327308131,
        -0.33539936894593886,
        0.9560303512658718,
        1.0871970337873467,
        0.9110291152840508,
        0.8602989709075176,
        -0.3256367182481312,
        0.5307487600863303,
        -0.4885324685521721,
        0.5711767702735764,
        0.9397746238851888,
        2.4293064034769634,
        -0.5943813079722604,
        -0.24598396279930712,
        1.1337609827635617,
        1.5351363691386053,
        -1.4369403203742381,
        0.5587522901500437,
        1.150741924071515,
        0.5858420127803254,
        1.4238627133101112,
        0.18181966223567617,
        1.7377691826580446,
        0.40675987392217633,
        2.64304650608152,
        -0.017883879727017042,
        -1.9872474348630333,
        -0.3998311504568743,
        0.17000613520913735,
        1.8062458110588318,
        -0.43609173243225613,
        -2.098128437245037,
        0.03919935571987594,
        0.48517629941887785,
        1.1849643389860536,
        -2.425770407515461,
        -1.2116812489166522,
        1.6479828036356414,
        1.2052234711725158,
        -0.11964826013197148,
        1.9321350764171885,
        0.5959497902267182,
        -0.8727517600368205,
        0.36068141538268117
      ],
      [
        -0.5223389713651682,
        -0.08212105126781527,
        0.6416662781382546,
        -0.6247889896295221,
        -0.5458721701559031,
        1.403675982541221,
        -0.7674108581901831,
        -1.1053631169790925,
        -0.29404616465333594,
        -0.47585463305602493,
        -1.0220571705560904,
        0.7762386632764684,
        -0.22219655985382503,
        -0.8161174962040401,
        0.9044929252627926,
        -0.919417039099613,
        1.1771133398967752,
        -1.6836507439358037,
        -0.5463525804253007,
        0.615890818888201,
        1.0907742150323383,
        -0.7901277184085153,
        -0.6333539824622901,
        -2.3195050355862943,
        0.8740040343980605,
        -0.6768091639355432,
        -0.95369275386332,
        -0.07819662358694769,
        0.5632320533184632,
        0.7185548077304024,
        0.13794369046419636,
        0.05430574355846907,
        -0.03255930040633557,
        -0.38609677020920363,
        0.04944122064382652,
        -0.4251831917076043,
        -0.8347827459911771,
        1.5204686150114395,
        -0.045411724167225456,
        -0.7054137176631455,
        -0.041765045179976985,
        -0.17500279541247254,
        1.5016546697564408,
        -0.89377336552688,
        -1.2415720081335508,
        -0.49528360254237536,
        -0.2781272275926982,
        0.1455099771497184,
        -0.5790824447571606,
        -2.1700156706436946
      ],
      [
        -0.34722206996693766,
        0.579953826455941,
        0.23592444900568044,
        -1.0010604107221277,
        -0.8016268321386751,
        -1.121704462990686,
        -0.20066144626185123,
        0.021227663717416887,
        -0.21358271668632814,
        1.3021056464831646,
        -0.8714709493228651,
        0.6625842552718768,
        0.08437215674634205,
        1.9319081733216132,
        -0.7755489732866564,
        0.9547983841134406,
        0.18034942128543274,
        -1.034043125091406,
        0.028511180862100288,
        0.9003678288638279,
        1.4584711756590787,
        0.19553550111352452,
        -1.0455386617122524,
        -0.2145656093784794,
        0.8262641213901798,
        -0.7738186985199341,
        0.854967315994652,
        0.5858501721881063,
        0.012318668705608302,
        0.22213854585368914,
        -0.08469590894130787,
        2.035062136226971,
        0.4416402123583056,
        1.1141562491636163,
        0.5176870644719682,
        0.5749011735232422,
        -0.6413280914813453,
        0.9246325653589794,
        0.35449981137366854,
        -0.3604835393113491,
        0.6070515575648254,
        1.9824982699427767,
        -1.2674322065851675,
        0.006981681170041921,
        -0.9087392773181755,
        0.19998578642083475,
        -0.7018293231398006,
        -0.5172121630847748,
        -0.2503043593158167,
        -0.04897271423462558
      ],
      [
        0.937798602519711,
        0.9963874579036621,
        2.7032902237495313,
        1.9966255864210192,
        0.9085098777801531,
        -1.4269332806155532,
        1.013388991433258,
        -0.8492578308140359,
        1.165275641211162,
        0.968867399678297,
        0.07797636582885864,
        1.6303805359239043,
        0.6044818417655852,
        -0.281339413311699,
        0.6109922595190901,
        0.431785751556109,
        -0.47255670495694796,
        -0.615137531235541,
        0.13600183597832238,
        -0.3575093298803526,
        1.004861080356049,
        -1.2824425636100583,
        -0.30584848553630317,
        0.9860319083301453,
        0.6599123980044425,
        0.18060520942156172,
        -0.6650752561332968,
        -0.424077225113409,
        0.8107424212834714,
        0.14709996920154467,
        -0.6161072689831507,
        0.8055916251264321,
        1.3314905589526527,
        -0.49542865924198537,
        -0.02855268528877446,
        -0.6939935586257276,
        -0.2554863603861607,
        -0.758199499840629,
        -1.3125298914933856,
        0.16727022206458023,
        1.2032754529246836,
        0.39545936316330854,
        -0.06243663367163582,
        -0.7637965646170193,
        0.7886424661410663,
        0.16130572763342418,
        -0.9231696374152587,
        -0.6762866648222049,
        1.7187105462047245,
        -0.6942887670469307
      ],
      [
        -1.2295862124192496,
        0.1008678314988144,
        0.04241833106057122,
        2.485730614536486,
        -0.3040340141833002,
        0.9807403734441748,
        -0.46105226060439686,
        -0.07629044487267451,
        0.13769429802022867,
        1.941298586237025,
        -0.3381912637862709,
        -0.37636401809433057,
        -0.31458345097800094,
        0.5607699714994261,
        1.2050418075006817,
        0.6819853345171368,
        0.6843788872942863,
        -1.6811170822145627,
        -1.8693768970541098,
        1.147212948212832,
        1.6834617648053423,
        -1.379261941160147,
        -1.39952202208418,
        -1.2424711378454891,
        -0.21034988586372244,
        0.16292291208347914,
        0.8264088785426553,
        0.40579380569590034,
        -1.6610867945675643,
        -0.3338488497082034,
        1.0947165279548607,
        -1.0140814590888119,
        -0.8380319738348204,
        -0.734208856476103,
        -0.14439040107450646,
        2.0113292806636593,
        -1.2230427505206154,
        0.33501061146753086,
        -0.1929416641930485,
        0.5285972684312139,
        -0.4222592198005152,
        0.5742385940850592,
        -1.0379085327386772,
        1.9073972247194535,
        -1.1620321075366442,
        -1.1034534193792014,
        0.538938698202628,
        -1.3298810294382335,
        -1.0586045187187045,
        -1.8204877012851677
      ],
      [
        -0.44930860111598664,
        -1.303705248394971,
        -1.1568350659097622,
        -0.043086647549976764,
        -2.2056461448744327,
        0.5875589813239491,
        -0.2751641028675866,
        1.245563348342327,
        0.8229056810731099,
        -2.320521978795266,
        0.7071160490602901,
        0.7264480247051592,
        2.6551097031603255,
        -0.46719862648160765,
        0.7284190896968369,
        -1.0726258769922967,
        -0.16428310468566243,
        0.6999907828057614,
        1.7469259567316726,
        -1.0487733155374073,
        -1.2782062668987664,
        0.5764362256930569,
        -0.5852955317871485,
        -0.6373028717126676,
        0.13718883505669452,
        -0.02702037980116807,
        0.23210713504733385,
        -1.0919857367414405,
        -0.7404894037603199,
        -0.6820344825319695,
        0.7303262789858092,
        1.2200008663410373,
        0.5919492781091045,
        -0.7310315220205525,
        0.08644960235954817,
        -0.13153397503772135,
        0.7060230310440095,
        0.13248285606474172,
        1.8772391205660612,
        -0.22356620122372456,
        -0.36194009875663136,
        -0.1741771942755509,
        -1.0090699075720855,
        -1.0056628724462704,
        0.07929218869422877,
        0.4912166064989076,
        -1.2850330358425843,
        -1.2360054120191408,
        0.5153454790451486,
        -0.7646694058482307
      ],
      [
        0.5263963773402718,
        0.024774568316537605,
        -1.0644808025900578,
        1.7029585263452396,
        -0.9006463656444723,
        -0.934141304859769,
        1.352716894985044,
        -0.7460482989293157,
        1.147253677041838,
        -2.178203748218111,
        0.03652734777558372,
        -0.4290526313082883,
        -0.0033249366713804037,
        0.3241269896636025,
        0.3120275162910784,
        0.07729202871145688,
        -0.5034870287850078,
        -0.22060556029925207,
        0.8773947968856362,
        0.6707874335360567,
        0.2375562875870387,
        0.6008633871562592,
        -1.2776028787227118,
        -1.5897187378974877,
        -0.25141920938678314,
        0.11892942238240091,
        -0.4729030525650209,
        0.7651614883722782,
        0.3299675015142544,
        0.038065046329425055,
        0.0884760013618379,
        -1.4409145338745772,
        -1.3278650623873167,
        1.0758687481405758,
        -0.9848105266917777,
        0.2857318305210287,
        0.48051005886906384,
        -0.3739423676733474,
        0.07943062858358506,
        0.5407784205382498,
        -1.0595002820366584,
        -1.4933351148343241,
        -0.3713583130036129,
        -0.6589157724990874,
        -0.6816058125402421,
        0.41833051446125097,
        -0.7997067758497636,
        1.3538384267443349,
        0.526349441672274,
        -0.03804062399654563
      ],
      [
        1.0560917983102132,
        -0.5149263996996728,
        1.0259675063441112,
        0.3812671322642361,
        0.0791219148800198,
        -0.5298816025922082,
        0.4857951002798455,
        -1.1389447066500522,
        0.5301115408532018,
        0.136921537208924,
        -0.34821553689046447,
        -0.8187308384183093,
        0.2500356030429201,
        0.3468373854752957,
        0.3094577406394691,
        -1.5037413805055906,
        -1.249612959338498,
        -2.3177512230812614,
        0.17311218293891628,
        0.17498216668552688,
        -0.6250462580289449,
        0.6123175353157959,
        -0.35607612043779074,
        0.41783552557891596,
        -0.6179772984224777,
        1.21344835855773,
        1.8606472747808518,
        -0.22310482733822543,
        -0.8394565468032004,
        -0.5585532391520617,
        2.6236433135529453,
        0.943292083108837,
        0.9633014833700461,
        -1.086969445884136,
        0.5280310603071032,
        -1.632181587691233,
        -0.03570265065475872,
        1.589261812325481,
        -0.0910662470373911,
        -0.47684511890816456,
        -0.5417245112980059,
        -0.9548567137571765,
        -0.5296345687002219,
        0.96894520110891,
        -1.2583684093159782,
        0.2071672853135199,
        -1.253033684069286,
        -0.8418837080900076,
        -0.7871803523561925,
        1.8161728359665297
      ],
      [
        0.9049548956216543,
        0.5725769070998564,
        0.4810218332154716,
        -1.0615677811539295,
        -1.3185414272840044,
        -1.0284675030173611,
        0.9898238723786855,
        0.6087185378917244,
        -0.44543858223452193,
        -0.17410046362048898,
        -1.4334419883423177,
        -0.31878592499708475,
        -0.8376787317042583,
        -0.06862013604665126,
        0.10716721824362274,
        1.635947869006641,
        0.3713432795642662,
        0.8891065198206879,
        1.2208340750046727,
        -0.6100553564285799,
        1.7259730640804547,
        0.06060404029127257,
        -0.20907086933721136,
        0.3267207303625651,
        2.5982265133016127,
        0.14143337929563257,
        0.14698507723788912,
        2.5982141599229918,
        -0.8412718322387266,
        0.11728300063104884,
        0.07143185400839834,
        0.5370415004016738,
        0.6026569242369622,
        -0.7270987789308567,
        -1.7796254622812346,
        1.4718749599563559,
        1.2573656104020978,
        -1.2556914719204277,
        -1.8803077827498929,
        -0.4586967396969402,
        1.3733761589703872,
        -1.6335894672116409,
        1.0213604037994004,
        -0.18598398958962958,
        -1.8534547064968387,
        0.6116310395833491,
        1.923490015851626,
        -0.264763187096968,
        0.8021578161161582,
        -2.0143875567686234
      ],
      [
        -0.42996014928523135,
        -0.15361476564579704,
        -0.8476737024965042,
        0.47135821440851394,
        -0.3527824844620013,
        0.30717101653776707,
        0.8828972393708123,
        0.43444764088453214,
        0.3770631027060057,
        -0.28949942725259703,
        0.03733675643162766,
        0.36810725588823456,
        0.7570562510549103,
        -1.2620409592397421,
        0.5079021345150754,
        0.1550842293721688,
        0.21474120780902398,
        0.10113955863373594,
        1.1625605778484152,
        0.18701661621948065,
        0.5387798698886695,
        -0.5342358997183971,
        -1.1126879846565922,
        0.7201713185999947,
        -0.32021192202396087,
        0.06762130842777477,
        0.8822965540768638,
        -0.388350844386036,
        -0.9343962464116088,
        0.335164009175175,
        -0.08530136190385622,
        0.9883319832467191,
        -1.4013045390951844,
        -0.1694888394574672,
        -0.1424338872436034,
        -1.2817553407226898,
        0.13334310143135367,
        0.6565794877013158,
        1.1560028718738162,
        -0.4646394776217166,
        -1.1282934564305585,
        -1.5001590810054801,
        1.018881782212319,
        -0.4870754660037971,
        -0.1331791139758945,
        -0.3976301447731654,
        -0.04186087312300977,
        -0.046105381915284877,
        -1.3345896189082118,
        1.1996634026723336
      ],
      [
        -0.5561911293220079,
        0.7025000940572079,
        0.95881683466609,
        0.09008180297053994,
        0.42364702001956,
        0.24584487266513078,
        2.111092139797125,
        0.7541807758983715,
        1.074944528069239,
        0.7626850257904646,
        -1.4299647917595109,
        -0.7778830818588197,
        0.8147007718470585,
        -0.22829528522168643,
        -0.8941120022048888,
        0.7159194343923493,
        0.9055203543858549,
        -1.3906660357065679,
        0.284702134804724,
        -1.4703953700500478,
        1.1737829301736555,
        1.5342873373370771,
        -1.076267785895823,
        -0.6507121150549818,
        -1.1618830054658715,
        -0.32510674655240607,
        0.7451967738512906,
        -0.10743840754882784,
        0.641800246005295,
        1.6923783889488766,
        0.9723422666895539,
        0.5842151929804935,
        -1.8847891849561287,
        0.5564280784198072,
        1.2306595830009306,
        0.7536714431028442,
        -2.4795452974613257,
        1.0607283326466277,
        0.16390391522692468,
        -0.9630859637333555,
        -0.4583326073794559,
        0.8737796038405158,
        -1.1563884474568482,
        -0.4214960360673705,
        1.0493229790145648,
        -0.21803803459429294,
        0.11344058540286803,
        -0.044041054149182336,
        -1.192958830951048,
        0.7909916078404775
      ],
      [
        -1.1905390399906102,
        0.23692569796612797,
        0.6235666113274576,
        0.7476122747265226,
        0.5369740979076247,
        0.9923826527441334,
        0.27464563016335475,
        0.7208386952840833,
        0.04342232149696002,
        -0.7079253221324174,
        0.08362446564817627,
        0.6421955276253714,
        1.2071345289390116,
        0.04473770057699852,
        1.7697437620019787,
        -1.2946111908412337,
        0.46499413725690397,
        0.3562127361382296,
        -0.879828820554247,
        1.843931060433575,
        -0.6392304707927354,
        -1.4628164626737692,
        -0.9697364451750609,
        1.3119573437968501,
        -0.5225574369490433,
        1.3209042623910132,
        -0.5450201393408898,
        -1.052605013047896,
        0.6700081150712688,
        -0.4047228522427469,
        -0.32086037138466106,
        -0.41086173215051724,
        -0.8431965081820587,
        0.8016683375111702,
        -1.1500832121122204,
        -0.6864149235204535,
        1.8248152975414063,
        0.6945635944764088,
        -2.7223326376959145,
        -0.10327927522777094,
        0.29353227569064494,
        -1.5310974582792343,
        -0.811136207346338,
        0.5821253174116867,
        -0.5789154378597454,
        -0.2882228875087044,
        -0.9558850901720405,
        -0.8595195206047432,
        -0.08907467761339018,
        1.1309440510345465
      ],
      [
        1.6480791141164903,
        0.9325917638782076,
        -0.8008431620856027,
        -1.0571724155707016,
        0.44311172197567905,
        0.07732012016893774,
        1.0780534537115283,
        1.4607006829881766,
        -2.163049695093074,
        -0.4714694590426272,
        0.01651432190463265,
        0.6522991605977775,
        0.7225457106773207,
        -0.17409758420939792,
        1.0142048262625318,
        0.6955517921642955,
        -0.4047954475188951,
        -0.829330428839868,
        0.3964591669976497,
        0.2976336267444243,
        0.5377308267196961,
        -0.42081144787142016,
        -1.0574271241483797,
        0.17278996692237839,
        -0.3198861616532089,
        -1.5382340789488385,
        -0.13342351932203286,
        1.5858384875963252,
        0.46719613618089795,
        -0.15919478225469672,
        -0.19758488236950766,
        -1.2836123167639535,
        0.014739477921375142,
        2.3184324594715773,
        -0.17402548073973803,
        0.6586659999090169,
        -1.6163167045706297,
        -0.7936391500664483,
        -2.2286404362719145,
        -0.13697172274859895,
        -1.248040132611919,
        -0.618525443436218,
        -0.03647240348310129,
        0.27274769901698964,
        0.22361513173688968,
        -0.5478066060561074,
        -1.1308921044337776,
        -0.17114556442558898,
        -0.8723959823135157,
        1.5874407452971093
      ],
      [
        -0.049978758921906626,
        -0.5858147918295388,
        -0.013370965890014394,
        0.3192601137298162,
        -0.18363664294504065,
        1.010348831403423,
        -1.6302526317566848,
        -1.4104178148805522,
        -0.8327737451957204,
        -1.252822620903214,
        0.3975041249195453,
        -0.7253687123609311,
        -0.6352632265222858,
        -0.03483841081329941,
        1.1607645499976893,
        0.5417423994465226,
        3.370147181026385,
        -0.5378878582207196,
        -0.2027950376526674,
        -0.35651019976415066,
        0.8975120934689038,
        0.024719035412140742,
        -0.6104010293985426,
        0.5814083221898381,
        -0.5904589164318418,
        -0.0010248158713036977,
        0.910699314127735,
        -1.3896423492587011,
        0.6644621264453034,
        0.8929486630061699,
        0.6243287740583302,
        0.05869722531748182,
        0.6093117794907995,
        1.7505353565964372,
        -0.7592827546985081,
        -1.2620381284968243,
        -0.3755799972489936,
        0.27972184166035907,
        -0.5359713255013622,
        -0.9618177497505607,
        1.4074774990423211,
        -1.7726045943772235,
        -0.9474280922990063,
        -0.6446151426680219,
        -0.14073708610493593,
        -0.7522113865436065,
        -1.6803698529699376,
        -0.29893433978498024,
        2.0598288404398204,
        -0.3130251664565974
      ],
      [
        -0.17197330892952412,
        -0.6198392767290017,
        -1.7182359951357689,
        0.9191907745509302,
        0.8627383633395842,
        1.1167137484927272,
        0.914323861005752,
        0.09472039394347656,
        1.2097843342675731,
        -0.30521120279146224,
        0.31377363671884284,
        0.1892638078409747,
        -1.0359762456365003,
        -0.3768482164516657,
        -0.1149046437117765,
        0.7716981336275454,
        -0.11494506497077628,
        -1.6960690440866895,
        0.5388312577584904,
        -0.41459364186370234,
        0.07934940881157444,
        0.06879134182648426,
        0.034254520692869585,
        0.7593614340905679,
        -1.1089001268603902,
        -0.5915794523416479,
        -0.812878399168273,
        0.05741046140572165,
        -0.4961976149660801,
        0.7927716642229206,
        1.0607316605890942,
        0.19502050010675728,
        0.8715927170682761,
        0.09775851348884787,
        -0.0807227736072576,
        0.14022086386939053,
        0.12542290263809422,
        0.6870197943497788,
        0.15340304439514316,
        0.6190182539817376,
        -0.7823357893334134,
        -0.387029926951922,
        -1.3227792534902085,
        0.1510742096542348,
        -1.6851345423878616,
        0.7687200564152662,
        1.4453329344204393,
        -0.3510955813803543,
        -0.5923731407357181,
        0.6411088308554557
      ],
      [
        1.6926032038384178,
        -1.2339381189197711,
        -1.0167086098900593,
        0.42921711659737294,
        2.1394462345139145,
        -1.155946835387657,
        -0.7708934158300872,
        -1.6185357491833328,
        -0.8880902701432726,
        0.8648199764545517,
        1.170963853367269,
        -0.9452912921866418,
        1.3935918716444133,
        -0.1392145874931575,
        -0.8788467555012516,
        -0.01051578590205156,
        -1.581933851237154,
        0.730250848835674,
        0.11037968164678365,
        1.1616305742294748,
        0.03924120534759347,
        1.745054508203096,
        2.276496090756534,
        0.9475308808684306,
        2.6333329854072427,
        -0.7910038720050591,
        -0.4417566431960161,
        1.2090639001557644,
        -0.4100681907475141,
        0.21822162937159822,
        0.25798612485116135,
        0.0805258714557887,
        -1.07529544947733,
        -1.488737107186883,
        -0.5174390093324328,
        1.2838543805143774,
        -1.1629863468333297,
        -1.0833619582130598,
        0.05313448473177829,
        0.48074143479744325,
        -0.644884821868598,
        1.839946077166244,
        -0.606163372458514,
        -0.1020581238746782,
        0.36466667929667873,
        0.5390648021787305,
        0.4198073859478389,
        0.35126544113843217,
        -2.00481223627064,
        0.5099763378560285
      ],
      [
        0.09650638179363981,
        -0.8178597778110673,
        -0.6816654109201027,
        -0.33530503170451753,
        -0.1314030839843385,
        -0.88516534899519,
        -0.7706592356116022,
        2.707399710103467,
        -0.9363094022627044,
        0.5017032312395484,
        -1.9597363687708687,
        -0.7312680659927263,
        0.20222278774538588,
        0.11198185547181858,
        0.49625731363389375,
        0.48412665476588274,
        1.6185570703685392,
        0.9684720770939913,
        -0.5239462090001065,
        0.25838657785771096,
        0.16423438191876394,
        0.3879435286299014,
        -1.2657782828027462,
        0.2903989774066968,
        -1.552393034106009,
        -1.6156592119994935,
        1.2989520635699014,
        0.05040927405941987,
        0.9072844410489708,
        -0.2372769266838176,
        -0.5437248351692958,
        -0.22821370016044915,
        0.3205116014537266,
        0.5000484200932147,
        -0.1439628679375082,
        -0.8640752060523347,
        -0.4710267882194416,
        -0.06806132098127263,
        0.9499023362963921,
        -0.32228413025878533,
        -0.06621282547746643,
        0.18510543538446714,
        -1.1893919257434171,
        -0.08379137238945922,
        0.9828045185257543,
        -0.43852052883975756,
        -0.12125281537437106,
        -2.195319398761774,
        -0.06551025342836234,
        -0.03249205623468722
      ],
      [
        -0.382089318888967,
        -0.05366289337690053,
        -0.4893685660351085,
        0.08574631452374079,
        -0.4142319220007934,
        2.1241098084854793,
        -1.269273348018859,
        0.589120219846871,
        0.2970242966859049,
        -0.35137868505437664,
        0.2927787248053768,
        -0.979226463432871,
        0.28327998108830255,
        -1.5197114370588358,
        -0.163465912232196,
        -1.5053120449938149,
        1.0817232650397088,
        -2.023085258536848,
        0.2451044096892496,
        -1.0473717528385913,
        -0.632792483152497,
        0.8186545890689595,
        -0.4036190140248231,
        -0.6367672782695537,
        -0.33878383171381027,
        -0.36187540197940127,
        0.9145451680898591,
        0.7722977435911317,
        0.47629643472116723,
        0.5226032646744503,
        0.3016018913864219,
        0.8789662268566671,
        -1.1844265446500066,
        -1.9687099792837517,
        0.6248559784023267,
        0.15726222758846353,
        0.45279565431879204,
        2.2219746094434734,
        0.12092096636424406,
        0.595445969369087,
        -1.1625663542050508,
        0.3763987607198434,
        -0.21216008592167088,
        0.7674923310384514,
        0.6135879873142651,
        0.9005271041850311,
        -0.9594763982078912,
        -1.7738732003688058,
        0.36442979729039543,
        -0.14971121018970998
      ],
      [
        0.9169180651452851,
        -1.116497061421258,
        -1.0697570834105656,
        -0.4191240698934707,
        -0.7243078170740802,
        0.892158725055444,
        -0.9857593645169307,
        -0.4042490237709376,
        -1.0715883401263668,
        -0.13728812422113013,
        0.4337279227756743,
        1.601607133995198,
        1.1557606402348797,
        -1.3196811162294813,
        0.6688915389131767,
        0.3627793882316834,
        -0.829069748216529,
        -0.3785133312071457,
        0.6351259287915776,
        -1.6501215308551413,
        -1.3560626167481877,
        -1.8344034121392334,
        -0.1368213205334436,
        -0.2253551041089345,
        -0.7273304129565926,
        -0.08953195312488618,
        -1.5383578283187471,
        0.14894514744186832,
        -1.5785638474421424,
        -0.01222175019940197,
        -0.8012389572012695,
        0.11502660243782395,
        -1.4175241953834474,
        -1.7245077192789375,
        1.175907684443306,
        0.7942622730331785,
        0.1975208937954968,
        -2.153826280443047,
        1.5662127958856866,
        1.818066935513085,
        0.8714282869433833,
        -1.4362070254328863,
        -1.5180256082477697,
        0.47848568514810913,
        -1.6389910226270286,
        -0.5281755492485553,
        0.7088387150548318,
        -0.1575398682004572,
        0.025881585971871245,
        -0.7830382957329473
      ],
      [
        0.43040559713805293,
        1.6634481649878714,
        0.5435592123258138,
        1.1411739065675182,
        -1.547233519308371,
        0.7122428164623504,
        1.4720467770701102,
        -0.0029267134754448515,
        -0.9061000480157482,
        -1.4882752783519768,
        -0.40022153665026833,
        -0.4444436956427194,
        0.6476057478740966,
        0.7751185780756156,
        1.1379733812614927,
        -0.18657205454659803,
        0.16089345486398723,
        -0.6189725338679986,
        -0.9558220944608615,
        0.4691865162351461,
        -0.15883724679302913,
        0.48746494828269527,
        0.26693656025532025,
        -0.9848595958481988,
        0.9382840605974132,
        0.7828215927023163,
        -1.5075976120909753,
        -1.093159996907355,
        -0.7562083670980271,
        0.805697108572149,
        -0.16869939367325296,
        0.7645993830217975,
        0.2853068586459517,
        1.261424495061687,
        -0.316027493179959,
        0.2266628948383861,
        2.1707806828199883,
        -0.3048208667458234,
        0.12226962401958551,
        -0.39045512807456534,
        -0.7710419650761005,
        0.3373215187500325,
        1.20988681443191,
        -2.123277002883327,
        0.47472692363636126,
        -1.2021552449444113,
        0.7017891461331183,
        -1.4659297941375917,
        -1.2730782139667116,
        -1.4660664391740157
      ],
      [
        0.0944736832103577,
        -1.926214002307642,
        -0.5327864238695441,
        0.7787286462477058,
        0.9090670292545782,
        0.10869250131648842,
        0.5676330611240724,
        -0.8486729844579612,
        1.6806230315273467,
        -1.124822235391363,
        0.36197638436397267,
        -0.6094290880534167,
        1.2455953696777586,
        2.3003762723766883,
        -0.09820135263663636,
        0.22397654990489754,
        -1.2394236291531568,
        0.34078211141845177,
        -0.4009046466509062,
        -1.0969001365841218,
        0.38123653007577313,
        0.3820467678547525,
        0.5555516504876853,
        -0.31837591274913957,
        0.24844682020837092,
        -0.007656786678411696,
        -0.9768282716031523,
        -0.4115100607267443,
        2.017605066297571,
        0.6549812623491175,
        -1.446614942067655,
        1.2326146143577659,
        -0.666399441411691,
        1.626806984787297,
        -1.1163794018873334,
        0.7541033714533836,
        0.1432253226525497,
        0.25844449789490254,
        0.4320491704538123,
        -0.09142509546833884,
        0.79048616647112,
        0.2409032161101464,
        -0.8899890442201248,
        -1.0019950159219777,
        0.7005987273197147,
        0.6396798950778482,
        -1.6058902372329023,
        -0.07681294886809689,
        1.4547714699528005,
        0.8704808192956227
      ],
      [
        1.4594067952201482,
        -1.1003137617147236,
        -0.23932066571259855,
        -0.23221813004084327,
        -0.9431816695358402,
        -2.6912710728348768,
        0.5624916990443055,
        0.7786249790996854,
        0.97085872411356,
        -0.5240706367278237,
        0.8673590353235063,
        -1.0140541537398073,
        0.11776121605497801,
        -0.227091524109469,
        -0.593903349552408,
        0.6776668986491448,
        -0.13203443257364858,
        -0.36953531897145064,
        -1.364217600309777,
        0.2858903032092221,
        -0.6214990499811062,
        0.7491128831142225,
        1.0646974633240345,
        -0.5242547684671568,
        0.4997462993658096,
        -1.1729381176386242,
        -0.14500074152998077,
        0.6451594758006487,
        0.874453314993735,
        0.3716272684699717,
        -1.0156940749265617,
        1.425674722865023,
        -1.2884120596163413,
        0.5758532784198417,
        -1.35170912811279,
        -1.1156565950542507,
        0.34846852579838766,
        -1.9799579280852837,
        -1.0947164159150269,
        -2.3381791938628145,
        -0.5539213743861475,
        -1.1589756478421462,
        0.6602573008279665,
        1.586245329007112,
        1.3299613059342286,
        0.8720681761641916,
        0.5555555116202683,
        -0.9183129498983568,
        -0.3066300489997722,
        -0.22677893257823883
      ],
      [
        0.20967713970059218,
        2.049711525883842,
        -0.9963147793435941,
        0.025543428059255153,
        2.2850587018573476,
        2.0186719610199972,
        -0.22562015298112229,
        1.116820938038304,
        1.0771218097363477,
        0.2070562195688173,
        1.4460929531704512,
        0.7810182065779625,
        2.0347435650603676,
        1.3961199041469305,
        1.5176010442278878,
        -1.3175102046717193,
        0.4211821144837877,
        0.09988682972615943,
        0.4924719767127515,
        -0.521835464075243,
        -1.4420525137957365,
        0.5055347746100434,
        -0.1814294972200594,
        0.15312500386103337,
        -1.4302462094636244,
        -0.7675021270408326,
        1.55558927838469,
        -0.2034234504104158,
        0.30047171551588714,
        1.2680699610247883,
        0.8925553411669337,
        0.20933066143035345,
        1.7082999333970748,
        0.20919649751348074,
        0.5652622924248591,
        -0.2027579311484362,
        0.6030756427078657,
        1.6286189790017924,
        1.1305664353405758,
        -0.24253671935341373,
        0.36865200616537963,
        -0.704091339632407,
        -1.7902916508452362,
        -0.21803880537296597,
        -0.19576692012003802,
        -0.7341721345437713,
        -0.557557071613393,
        -0.9599648247345411,
        0.31239748713019266,
        -0.03763268341047863
      ],
      [
        -0.3951445154785635,
        0.038992721700175884,
        -1.2628437942936017,
        0.7565398392091202,
        0.6397755165314601,
        -2.3771873487281936,
        0.7873846832657313,
        -0.660750001031519,
        -0.017607482180435997,
        -0.39433204238371605,
        -2.4254731793746034,
        0.6720808576666574,
        0.8758272412278059,
        2.0109964586871456,
        0.8834242133657647,
        0.0487907037653445,
        0.5394949767753138,
        1.082752471732286,
        0.6932877545912216,
        1.635480637000152,
        -1.3099891861907493,
        0.44508951538667063,
        -0.3823009116988717,
        0.09766793567272396,
        -0.06424436276376108,
        -0.18734788120723614,
        1.6448386439428517,
        1.6795692290723463,
        -0.5453568648170625,
        0.5857911846071896,
        -0.3623092695500343,
        -0.21655082065472273,
        -1.4259928651078784,
        0.6011045372707647,
        0.15322207169239313,
        1.4422824163147876,
        -0.5785050577353766,
        -1.5738421436857213,
        1.0233459425137208,
        0.7071906565717475,
        0.8220058200298149,
        -0.5469688664820992,
        -0.591182825376373,
        1.5229670797742465,
        -2.109970783459808,
        -1.067541116227428,
        -0.41764309807919864,
        0.6111287409808457,
        1.0035888581265742,
        0.13144099718069402
      ],
      [
        0.9881536399678635,
        -1.5492800587085704,
        -0.7194576151621106,
        -2.6342494249384054,
        0.7210559495103488,
        -1.1902439771856985,
        0.49551094156522657,
        1.159445227042821,
        1.1780284680069846,
        1.6063388775256813,
        0.3097206370858865,
        -0.003186828627617879,
        0.3426882885963145,
        1.2525904052991312,
        0.38565712619212134,
        2.561804032789314,
        0.8482808213816324,
        -0.807429512685168,
        0.6767215771806233,
        0.7770397859802861,
        0.640490437067284,
        0.19473445592841288,
        -0.8875657596884226,
        1.7880423823946079,
        0.24732972262495487,
        0.5112830999480826,
        -0.4866986527401134,
        0.5279383772291053,
        1.022622917001599,
        0.2834954746333122,
        -0.6230695130856936,
        1.5869701336132613,
        1.954059248617296,
        0.6313907454792298,
        0.8924787398208086,
        -0.42704293817190514,
        0.7697777405660695,
        0.10258873535216169,
        3.076851698031316,
        -0.2354367711339651,
        -2.2450691527019453,
        -0.87906114818529,
        -0.7934117392836071,
        -1.3336933476736366,
        1.5214261157929425,
        0.2241563302765406,
        -1.233044348116091,
        -0.3589964287764982,
        -0.4911587285291945,
        1.3794101268578698
      ],
      [
        -0.1111486661711611,
        0.0924185395483571,
        -1.288876615821387,
        -0.5752559283351935,
        2.761574194490439,
        1.2098555152357418,
        0.693511099679035,
        0.026232147087185527,
        1.2351407831833714,
        0.9983335607405013,
        -0.7499705679504687,
        0.25909958028463415,
        -0.33857293365439695,
        0.22745462749131615,
        0.5775066565868152,
        -0.022088789617878253,
        -0.8571674387360873,
        0.9067730985575526,
        -2.1177871518835105,
        0.10409414461694326,
        -1.0270253422939664,
        0.02161925982304847,
        -0.6841252740637057,
        0.051087626098733616,
        -0.27938470545857097,
        0.4603393247390205,
        -0.191907616711977,
        -1.987429700213405,
        -0.8857369128159572,
        0.20723020780699583,
        0.7558920632822742,
        -1.0027148771824104,
        0.7934239784073964,
        0.9204716987062824,
        1.7017651138451821,
        -0.271083329955302,
        0.9643076331095609,
        0.2810061470490633,
        0.5284117619820594,
        -1.54240086221987,
        0.18357840221720187,
        -0.16030101197473914,
        0.5969266598895521,
        1.1976669475160315,
        0.4584118330875626,
        -2.0353763404678045,
        -0.5321971462057608,
        -0.3231078376042453,
        1.1576748778312043,
        -0.10167034539409496
      ],
      [
        -1.3277255446161813,
        -0.11902443410761132,
        0.04921522596627656,
        1.4614558104467377,
        0.5722617496536104,
        -0.18784976228748407,
        0.28513129727414405,
        0.754284968792949,
        0.13131345045243456,
        -0.3963352828406252,
        -0.5614080692316353,
        1.05229028447744,
        0.005957485687857115,
        -1.0390093850564561,
        -1.9537342662361583,
        -0.07800792181157289,
        0.5636911142402311,
        -1.0519178066817063,
        -1.7126795922271238,
        -0.31242949207962134,
        0.8221711415123527,
        0.677660801607782,
        -0.17444292914457285,
        -2.2748685452255133,
        -0.6367920492228195,
        0.08377639524727686,
        -0.2882204846377356,
        0.42576347974767864,
        0.5900124612655598,
        -0.13220131806021923,
        -0.4769925960346368,
        0.9129885421790678,
        0.3113332364591235,
        1.551252066763337,
        1.0619822034335042,
        1.273737994828116,
        -2.2720677622492564,
        -0.6794409536539401,
        0.07943774243662437,
        1.342629995068983,
        -0.5800367020155583,
        0.13059250865272376,
        -0.6017366120875104,
        0.3172320684999948,
        0.9968774944437484,
        -1.027405209120875,
        1.6315827281714959,
        1.5117790429273499,
        1.0785267419934093,
        1.0283090625789593
      ],
      [
        -0.315582469386416,
        0.2500784321572071,
        0.34142207814251596,
        -0.6766538902247617,
        0.28155827177731246,
        -0.9542001167246931,
        -0.18861685015765342,
        -0.9196462708509601,
        0.5751120993918319,
        1.8126204563299302,
        0.23384273078236695,
        -1.9512802095489505,
        -0.37237759429165046,
        -0.0851551584964294,
        2.4066485413500693,
        0.9999376296970908,
        -1.212057460213022,
        -1.574140373319921,
        0.021166870451713324,
        -0.5769731422472981,
        -0.7509480716790534,
        1.0931290333779373,
        -1.4999736153273804,
        -0.8672541880373557,
