{
  "version": 2,
  "created_at": "2025-09-03T11:42:43.801797",
  "last_updated": "2025-09-03T11:42:43.837154",
  "capabilities": {
    "mathematics": {
      "arithmetic": 0.85,
      "algebra": 0.7543619526134578,
      "calculus": 0.6567618756577875,
      "statistics": 0.7,
      "geometry": 0.7275776278508022,
      "proofs": 0.6095800709139629,
      "optimization": 0.6924521117868148,
      "number_theory": 0.6462364789696677
    },
    "language": {
      "grammar": 0.88,
      "comprehension": 0.82,
      "translation": 0.76,
      "sentiment": 0.84,
      "summarization": 0.73,
      "qa": 0.78,
      "generation": 0.75,
      "reasoning": 0.71
    },
    "code": {
      "syntax": 0.9,
      "correctness": 0.7341024377298568,
      "optimization": 0.65,
      "debugging": 0.68,
      "refactoring": 0.7041922295434224,
      "testing": 0.652247181865542,
      "documentation": 0.69,
      "security": 0.64
    }
  },
  "cumulative_improvements": [
    {
      "version": 2,
      "timestamp": 1756899763.8369393,
      "developer": "a2e1e369b212043b9f9a38d5b97033434b16b502dd169f1aeaf8d71963e43320",
      "improvements": {
        "mathematics.algebra": {
          "before": 0.75,
          "after": 0.7543619526134578,
          "improvement": 0.581593681794379
        },
        "mathematics.calculus": {
          "before": 0.65,
          "after": 0.6567618756577875,
          "improvement": 1.0402885627365415
        },
        "mathematics.geometry": {
          "before": 0.72,
          "after": 0.7275776278508022,
          "improvement": 1.0524483126114144
        },
        "mathematics.proofs": {
          "before": 0.6,
          "after": 0.6095800709139629,
          "improvement": 1.596678485660493
        },
        "mathematics.optimization": {
          "before": 0.68,
          "after": 0.6924521117868148,
          "improvement": 1.8311929098256927
        },
        "mathematics.number_theory": {
          "before": 0.63,
          "after": 0.6462364789696677,
          "improvement": 2.5772188840742434
        },
        "code.correctness": {
          "before": 0.72,
          "after": 0.7341024377298568,
          "improvement": 1.9586719069245646
        },
        "code.refactoring": {
          "before": 0.7,
          "after": 0.7041922295434224,
          "improvement": 0.5988899347746379
        },
        "code.testing": {
          "before": 0.63,
          "after": 0.652247181865542,
          "improvement": 3.5312987088161862
        }
      },
      "model_hash_before": "ecbc9a5db68d643d8b9191a6d69406314bab3f6d74f034ed6950fa3725b71e49",
      "model_hash_after": "3b6fcfba8955d4954340d48aaa39f5a80c2306fced1d65675154e5687c3c3c5c"
    }
  ],
  "model_weights": {
    "layer_1": [
      [
        -2.721795804515979,
        1.3918114271002837,
        0.41677262819347094,
        -0.3524922794352638,
        2.177841361533204,
        0.4306138021149517,
        0.45202216440257986,
        -0.09324639318323989,
        0.16990667308815322,
        0.24595459537481015,
        -0.5986684086035042,
        1.1790310370656125,
        0.2563319225842944,
        0.9775198366511659,
        -3.116943025793437,
        1.6269605401491583,
        0.3862115918906112,
        0.8609629641880653,
        -0.5891031942066822,
        -0.29704908908267924,
        -1.1449220975595857,
        -0.11507799124076726,
        -0.906906995881035,
        1.083739418611586,
        -0.19814068063258844,
        -1.8775505069936262,
        0.538912777841199,
        0.35061393840295124,
        -0.6671514441924868,
        0.25491308380829497,
        0.5663700307184854,
        0.23322833630036308,
        0.5265212419397283,
        -0.45749335625983717,
        0.8012631735801843,
        -0.25465627356254417,
        0.5940882468073427,
        -0.5854947479864434,
        1.1417680425080294,
        -0.4550283169401092,
        -1.191900038044066,
        -0.7639261017913922,
        -0.7726388562507274,
        -1.400219999034921,
        0.3860972287250391,
        0.5377141143974177,
        0.27343506766005876,
        0.6336391375385804,
        -0.35101424910345586,
        0.5313356626113218
      ],
      [
        -0.979581622062774,
        1.2398860443311375,
        0.2014463768006518,
        -2.9420607253017086,
        0.2545432819410835,
        -0.40007711612665026,
        -0.693009214451652,
        0.30434753002272685,
        -0.3219000603156539,
        -0.5532403748115395,
        -1.1330709282287543,
        -0.31871226557702936,
        0.6724656384974702,
        -1.1861730023716368,
        -0.19070180750618695,
        -0.38446305544630205,
        0.5571583986028183,
        0.7199103790621512,
        -0.27592592952635453,
        0.7371380784501151,
        -0.4932538797150266,
        -1.207322992366694,
        -0.8521649409505754,
        0.502724517634403,
        -1.129974109282283,
        0.3837637712382265,
        0.08139382883733216,
        -1.8589315361484233,
        1.2697816195167333,
        -2.2438132893615035,
        -0.44411632922176636,
        0.7600316652103083,
        0.54347215650688,
        1.683216614822815,
        -0.9833992312017228,
        -1.0511144038590234,
        -0.1595596503510585,
        0.1280111519493789,
        -0.12863881708968528,
        3.0903068293006317,
        0.12916800305404583,
        -1.040323928720003,
        -1.3531201240283888,
        0.03936546463436767,
        1.3799900470851678,
        0.9765704041793362,
        -1.0873339880866733,
        -0.7259350559348998,
        2.9240237368651174,
        -0.4415377915804771
      ],
      [
        1.3904684136845569,
        0.5732194348942055,
        -0.7030195141788728,
        -0.359476413091255,
        0.9647655347785363,
        -1.954102122056161,
        0.9233113299620378,
        0.10821957234368909,
        -1.4109851974361887,
        -0.11021414416414413,
        0.12261553593219672,
        -0.8883858497791471,
        0.44350933911081103,
        -1.0322133252422565,
        0.8042499742973452,
        1.2675933819229481,
        -1.0580458987833086,
        -0.17825650530799084,
        -1.2655704321112011,
        -1.127333285730408,
        -1.034797193883821,
        0.3788550850018216,
        0.6898639559982381,
        0.572566552374061,
        -0.887527235148431,
        0.2947548490640424,
        0.48598886477277364,
        0.27114655673069854,
        -0.726830133930063,
        2.5717397225481946,
        -0.8181719222143183,
        0.8259333645519211,
        0.8091214187633504,
        -0.6234840014222035,
        -0.5100405472058678,
        -1.6164385455791632,
        0.12946678739217998,
        -0.2599983094567975,
        -0.4263489091563401,
        0.32358590546459465,
        -0.26447801570015084,
        -1.294037905809104,
        0.8488314249318627,
        0.9941540302209447,
        0.5651468592110118,
        -0.49728666376745784,
        -1.5710434312959298,
        2.31891971398232,
        0.6612193128895594,
        -2.078345869085044
      ],
      [
        -0.09156427399830191,
        -0.141162569748482,
        -3.4377059067916824,
        0.92235751545327,
        -1.5303989586330824,
        1.2960611030574094,
        0.4070204976248103,
        1.292890571688545,
        1.3750319096605779,
        -0.4351561094684438,
        0.1315935357317945,
        0.16379691893901163,
        -0.6808031252622414,
        -0.8665334761765263,
        -0.27545929923529244,
        -0.11186637483617973,
        -2.235228933170361,
        -0.944149717760861,
        -0.6346915146660386,
        -0.23494544593724268,
        -1.6706787062860435,
        0.919547894087393,
        0.2906336814445567,
        0.34027667090847025,
        0.3033079731434149,
        1.297349137157839,
        1.3694412677440366,
        -1.1516482828520582,
        0.6308491640715752,
        -0.5931085268508576,
        2.2241079856515804,
        -0.7118336430148535,
        -0.09712489112308262,
        0.15887556820080864,
        -2.06575630968201,
        0.22638135531032638,
        0.205089324626378,
        -0.9103537499162005,
        -0.5464201445297948,
        0.7471332147604254,
        0.22978609998182709,
        1.2785121064157985,
        -1.3658913140672995,
        -0.9425502435608865,
        -0.6215678890151947,
        0.4443541301132866,
        -0.8643014390655769,
        -1.0049670256482104,
        -0.4576052989397811,
        0.43055986766694765
      ],
      [
        -0.3805202386346384,
        -1.3547344805272943,
        -1.5528546905909633,
        -0.9113921602668272,
        0.6179127772280791,
        0.18303875454590393,
        -3.607643491806696,
        -0.4934000123383476,
        -0.5244720464411838,
        1.1990457608765843,
        -0.04583769358519271,
        -0.49675552484738883,
        1.6996437091836418,
        1.0299227745119925,
        1.1846988349895056,
        -0.8125846853725167,
        0.040440341151045736,
        -1.459693878247824,
        -0.07588382161163218,
        0.3125327625083928,
        -0.7365824483125114,
        -1.2909322468866,
        -1.830802656016572,
        1.267976210499689,
        -0.5767533400743554,
        1.020292275589375,
        0.4782709727097873,
        0.31410577242199733,
        0.30475036022848745,
        1.3560889811326462,
        -0.25877307963858676,
        -0.9391023966444664,
        2.455182955240917,
        0.3889821674508429,
        0.33730227708842747,
        -0.7224580183335154,
        -0.5618897727686866,
        0.02094760455125757,
        -2.4337655691386946,
        0.2612058004328993,
        -0.309953011113097,
        -0.9546292728525714,
        -0.085879045474261,
        -0.4757924009560087,
        0.6617609955473727,
        0.12055145138268251,
        -1.4156742028264322,
        1.23425268598217,
        -1.175368970325231,
        -0.8637667880177388
      ],
      [
        -1.0282196298551534,
        0.8097134312108256,
        0.9746116295964319,
        0.42441071932639424,
        0.449872349526299,
        1.3835018708311795,
        0.6699522689411344,
        0.24178574392716126,
        -0.5262298506646624,
        -0.11737860575693262,
        -0.14150087414520135,
        -1.1827393776584405,
        1.8033099044632392,
        -0.08719816350006926,
        -0.6577120653570203,
        0.11668777994757198,
        -0.12474829978102966,
        0.2684164171781188,
        -0.5853845946064242,
        0.6325145031466788,
        1.2796780585281355,
        0.11788161908669546,
        0.1302955903434075,
        -0.004028643338179361,
        1.136284432129168,
        1.0658070288152002,
        0.5810961733889737,
        0.3618818288654682,
        -1.934829351156266,
        -1.6446140802339761,
        2.2806113907587826,
        -0.41597650065510616,
        -0.22414952085730303,
        -2.428969332746649,
        -1.2747870020996244,
        0.6016189020728054,
        0.33277954840654644,
        -0.41406426532246765,
        0.709054507401122,
        1.8019112510670587,
        -0.025306965199115006,
        -0.20321182738912547,
        -0.24068211076000004,
        1.5279340365049467,
        -0.25315241775812686,
        -1.5212413416122652,
        -1.2226925157965267,
        -1.5201592587697825,
        0.9177824424111741,
        0.44380425015606895
      ],
      [
        -0.7017902350449657,
        0.48835290880681603,
        1.9132373334319575,
        0.09851966660387394,
        0.2385177748963128,
        0.8031315537540452,
        1.9677036672849917,
        -0.9820648680338189,
        0.5698687494445502,
        -1.0259638658768602,
        0.33788029391301916,
        0.023644904261960885,
        -0.6031814380222374,
        -0.6837949752850152,
        -0.7357812363959292,
        -0.37766562946215604,
        0.28725627228013845,
        -0.07962039148465679,
        0.32581333843259813,
        -0.8257715108280909,
        -0.4153434833989918,
        0.10211025374015034,
        -0.6670199395906328,
        0.9816265973652244,
        1.5694743236930149,
        0.984629285667166,
        0.027247380715778327,
        -1.2156214643919605,
        0.43530721168885506,
        0.6700504951251866,
        -1.0405329579883418,
        -0.1847867089358157,
        -1.4203704449890815,
        0.3837044421953523,
        -1.9987704135932023,
        0.9893819153434972,
        0.8676118862443549,
        -0.06038124860932895,
        0.2709196946620354,
        1.8020187113231596,
        -0.242527628954287,
        0.9193617231054497,
        2.247873884288041,
        0.8184498298231135,
        -1.5023770169961974,
        0.2983299329866655,
        -0.46037183516863445,
        0.8047703920140903,
        -1.0910859711690062,
        -0.34905112414797584
      ],
      [
        1.3001447727070814,
        1.6332196745710912,
        1.6799055146676245,
        -0.32670042993143744,
        0.2951339617730095,
        -0.30253399267291886,
        -1.15516605698126,
        -0.0382832097218071,
        -0.2708641045198815,
        -0.41393837380438003,
        -1.2170857366051036,
        0.7756952873634344,
        0.5795852431710989,
        1.0945236462245929,
        -0.6530790524265951,
        1.1178315794046119,
        -0.764794220298938,
        2.378327762123748,
        0.2689743483305387,
        0.37768587111193364,
        -0.1297923137057866,
        0.60329392197809,
        -0.2388513068070307,
        0.7693945645580947,
        0.6111961213926713,
        1.8518596107585583,
        -0.28134623536095116,
        0.5435775364880788,
        -0.2269023563383214,
        -1.844493746215528,
        1.0808707796021415,
        1.1361261506060254,
        0.055252310699436286,
        -2.126399072991411,
        0.9846516454956662,
        -0.32454737985797216,
        0.8340555598325892,
        -1.402543212526268,
        -0.8549903469676201,
        -0.14736401178096806,
        -0.7208700911463011,
        -0.18329095710753243,
        0.10796824399649982,
        1.7703911021525343,
        -1.3103660710256668,
        -0.823510710134226,
        0.4245436260798601,
        -1.2932807964528805,
        0.15684279718525573,
        0.8790515838610354
      ],
      [
        -0.8355338792490627,
        0.05647268979180844,
        0.9758625613463967,
        0.5318430230816272,
        2.150805831274074,
        -2.2656492025726167,
        -0.815613235491316,
        0.6074354158508817,
        0.9553903681909701,
        -0.571135682324044,
        -0.8056251737598576,
        -0.372587539383472,
        -0.47373419512517567,
        -0.11022930831478815,
        1.4802559778602737,
        -0.016956982771857563,
        -1.120028866637646,
        0.33429523508316733,
        0.6619515586032626,
        1.7241324990508204,
        -1.7376935070658668,
        0.7341817685545424,
        0.37012842839663684,
        1.6940724444026636,
        1.2415468005444867,
        0.8134748099562719,
        1.1250082444952796,
        -0.9812693111764136,
        -1.6131032999484285,
        0.055007779314978154,
        0.22461330166072077,
        1.070502803304388,
        0.5332605380836886,
        0.9641916642900309,
        1.940315510883388,
        -0.04253842529940903,
        -0.6639589970133086,
        1.6588621309765024,
        0.8556228509138694,
        0.3971957326233238,
        -0.2887807280046036,
        -0.0013740437894757937,
        1.4010611293714534,
        -0.2230000954308282,
        -1.1579703302584432,
        -0.20370256327423247,
        -0.19933678156582957,
        1.3024141379931173,
        -0.6371433658478872,
        0.24419197508153767
      ],
      [
        -1.353598235699423,
        -0.0052330177546930316,
        0.6538962806716253,
        0.48449251413200006,
        2.1617501492117763,
        -0.40427910642343734,
        -1.5383938636115388,
        -0.18275994540282156,
        -0.8373522078748455,
        0.05452556021660828,
        -0.5628192197817665,
        -1.8189682251608295,
        0.5154531246768256,
        0.7276484386548177,
        -1.26118092817924,
        1.7689816715419477,
        0.660658848654104,
        1.1007630732201943,
        1.297192110546492,
        0.9494380336808738,
        1.4005325726081945,
        -0.03272955273942173,
        0.8526719628253047,
        1.2708288153094411,
        -0.31051097729631605,
        -1.825055299016908,
        -0.58870451378359,
        -0.874871302778962,
        0.833986543189008,
        -0.8590362763738643,
        -0.42175639466369497,
        -0.5087761254548936,
        -0.8207798705718083,
        1.1806822656582023,
        -0.17820668039537735,
        -2.5573267699531947,
        0.4892353552405703,
        0.9472657072173873,
        0.5358568092434811,
        -0.09421640191351896,
        0.8303506097247532,
        0.5986308818198893,
        -2.402801539496727,
        -2.281162547368256,
        -0.9474664752968289,
        0.4267345626683291,
        -1.4375426779693499,
        0.005061655364374923,
        0.2973548195250361,
        0.5861870808294208
      ],
      [
        0.37412966517163293,
        0.5224434864443556,
        0.16381568336495023,
        -0.668915400001922,
        0.48809437567234565,
        -0.5665587018305401,
        -0.45016895653302624,
        2.15951459338166,
        -0.1544298823133774,
        -0.8579702073599544,
        -0.6507183571263087,
        -0.06350988636975159,
        1.486575070953743,
        1.1271411126706457,
        -1.9786648137303495,
        0.37362477248292975,
        1.343918521288301,
        0.9041408747258834,
        0.7636688565466067,
        1.1536616434403686,
        1.4382670428162785,
        -2.335652751615678,
        0.2212079677940966,
        0.15634236346310024,
        0.02053156677935168,
        -0.9837218309745993,
        -0.15227931837779582,
        0.46686338192191384,
        -2.0734617983675356,
        -0.23770621982036383,
        -0.5473065439464936,
        0.8008607052053346,
        0.6760875877955536,
        1.0583888566677675,
        -0.835693239115469,
        0.8898032836133083,
        -1.6642167448773297,
        0.8952900019439386,
        -1.203048261932704,
        0.37316784494558,
        0.21265673871461696,
        -0.5785275808510922,
        1.5833321298639638,
        1.2731474892951218,
        -0.6322390440846368,
        -0.28882627638600805,
        -1.0593482398852678,
        -0.6831638009619148,
        0.7676920840466303,
        -0.25566603619677963
      ],
      [
        -0.5664443159621063,
        -1.7393395120909814,
        -0.8603141029181313,
        -0.21668206265334658,
        1.6580064468234055,
        0.2853758091092622,
        -0.4952584844162989,
        0.3332204524751406,
        1.2578590776587795,
        1.046011067226553,
        -0.7953722783887148,
        0.8943169014135399,
        0.6216881648202642,
        0.13582061247982613,
        -1.6970673637600526,
        -0.9010681036639326,
        -1.529375939052389,
        -0.2710524909690157,
        -0.57665134964695,
        0.6001650836797152,
        -1.4328531076020052,
        -2.708503385908633,
        -0.5197652750509959,
        -1.6591989285535536,
        -1.9867252365767072,
        1.9651525779314027,
        -1.6212520814556024,
        0.37414149862172735,
        0.5534454791148247,
        0.05797291447671155,
        -1.3224285316744662,
        1.7958151279675838,
        -0.2638786562903429,
        -1.2663147104061347,
        -1.875814073215822,
        -1.4378405504935095,
        -0.20731421285177876,
        1.3206451377713828,
        0.5668200063909205,
        0.34314935432222415,
        0.618699499502706,
        -1.0754671528395763,
        0.5287870222970726,
        0.7404896667902822,
        -0.45010477129137483,
        -0.32097369673248777,
        0.6863335194943216,
        -0.413269359781216,
        -0.5098380191891754,
        -0.6953767804280171
      ],
      [
        0.9240777567223797,
        -0.40939363426003983,
        -0.4198124469156136,
        0.08035348726855347,
        -0.028965634084862253,
        -0.8710457143564555,
        0.38821249508849154,
        -0.304137579392406,
        3.3584967786548607,
        -0.9908272504088145,
        1.7623982669450902,
        0.8248814079852363,
        -0.5279686592362892,
        -0.5774037477162826,
        -0.6649753778000798,
        -0.9495582172193672,
        0.4268065806969029,
        0.2754368357998546,
        0.7633058440860891,
        -1.304057594232163,
        1.1407855046742785,
        0.13330259610736875,
        0.8800170244828934,
        -1.691583493819015,
        -0.7818532968370572,
        -0.13622333190439526,
        0.9079844761532717,
        0.9933457822324414,
        0.3032414051976892,
        0.8266422462816333,
        -0.42148765844193525,
        1.5142978857874965,
        2.1884389930505765,
        0.40349627528935905,
        1.5117988915219591,
        -0.14775215733137137,
        0.9484779912516688,
        -0.8382893185535858,
        -0.39130870467874257,
        0.5021083528374435,
        -2.04247879113387,
        -0.7141973161719158,
        -0.3541027036718851,
        1.2116049303064598,
        -0.3360414981362197,
        -2.4348163406511425,
        -0.8753408101178968,
        1.5361414913280886,
        0.9661919593173273,
        -1.3242181683778615
      ],
      [
        -0.2626152899699575,
        0.6611486403250812,
        -1.4658131249446251,
        -0.07587486910747133,
        0.08941002532772646,
        0.33348860682489123,
        1.8848049122536572,
        0.9245625097718014,
        1.5301331340588846,
        -0.020195042031904097,
        -1.0546824721691992,
        -0.12290973521175089,
        0.6081360731449718,
        1.023218537549794,
        -0.7588576649833314,
        1.323056710218688,
        -0.24776649958925867,
        -1.3726976846977723,
        -0.2637583499180853,
        0.5680927819090519,
        0.92342710614894,
        -0.048728004543040826,
        -0.6133921523219144,
        -0.48981697689353443,
        -0.014848528678892192,
        -0.0028461931814362518,
        -0.8055282499227416,
        -0.04613615833721378,
        -0.4904714421816481,
        -0.47983170206532044,
        0.36940387588558216,
        0.2327066952807062,
        1.1797501397919585,
        0.6304532549783786,
        0.7462062605410834,
        0.43846104198336683,
        -2.0542044555101286,
        -1.4611963888033432,
        -1.0636382868578889,
        -0.9407739874961291,
        -1.0014033288304889,
        0.7730386688071983,
        0.1423281872141501,
        0.43512600316985184,
        -0.26259107330782444,
        1.3654306405916476,
        0.3529826178041176,
        1.3646559037633665,
        -0.6962220433323528,
        -0.6002114193455709
      ],
      [
        -1.0776306963468376,
        -0.8954201468205379,
        -0.3761303246560138,
        0.5969028733891376,
        -2.0802821545546157,
        -0.08489588489471413,
        -0.6654867241298174,
        -0.3879096630927086,
        1.6722664512463645,
        -0.24384654267139041,
        -0.3579808378537578,
        -0.48825888476842566,
        1.0273398217333085,
        0.8501166448327244,
        -0.6855351140841893,
        -0.5840526749824103,
        -2.0342735264840384,
        -1.5041162181079721,
        -0.37336008033348395,
        0.06630611760916322,
        0.10929029939593092,
        1.0903139092170913,
        -1.4419319370392074,
        -0.1162052215579549,
        -1.0548104449817997,
        -0.9827493836295729,
        -0.654729926036966,
        -0.4312714805322642,
        0.702191792491265,
        0.2842123881347173,
        -1.4999081587823706,
        -1.358572389698143,
        1.6289051921758018,
        0.7209825860288115,
        0.20157808272808478,
        2.432463750423717,
        -0.008984996324584632,
        1.4058529281175416,
        -0.7300135374822665,
        -0.21583350011284494,
        -1.1359811978618255,
        -1.1308819545698023,
        -0.08753008975031479,
        -0.15672004237266698,
        -0.6153683502827062,
        0.48994011254333764,
        -0.09871548117480192,
        -0.20257749271828807,
        -0.3211854603376509,
        -0.6578763823157122
      ],
      [
        -0.6354305765394306,
        0.5365724404879463,
        -0.3667120865948588,
        -1.9135537374492129,
        0.444362453668448,
        -2.4109467713473114,
        -0.8800558483423112,
        0.8518112212517618,
        -1.0758859357537556,
        -0.44271934743191965,
        0.7445975549021364,
        -0.7349234611939416,
        1.052553701129363,
        0.32952568496751555,
        1.2398250556332544,
        0.7544830692799015,
        0.013569901323600083,
        1.0614967289608763,
        0.6420628326943306,
        -1.1511322487272504,
        -0.039738181878808405,
        -0.6940218753252783,
        0.6620069065739851,
        -0.6493379197822782,
        1.1093324469952774,
        0.03044641673486626,
        1.22898633122245,
        -1.205647685043697,
        -1.6636111097146704,
        0.048104324687752296,
        0.8665098591847511,
        1.488077373465581,
        0.1500275128001072,
        -0.14900545388945716,
        0.38558971757793953,
        0.45979053903435996,
        -1.6360960846880526,
        -0.707194708452242,
        0.06556094922196841,
        -0.44287086163430806,
        1.5453692125051983,
        1.199974334695458,
        -1.5421392074062554,
        1.3141907038478837,
        1.7946618701604806,
        0.12481680603739374,
        1.7790652284934239,
        0.13317141462148305,
        0.8249488766554209,
        1.6566887682268034
      ],
      [
        -0.5480429446658284,
        -0.3314845907965779,
        0.4026945452166728,
        -1.2475244048559422,
        1.507795620145209,
        -0.33207669292670455,
        -1.9787229746635357,
        -0.8889503371283762,
        -1.3471177627746427,
        -1.4432056275618417,
        0.018035875866894233,
        -0.6578436305061816,
        0.15164811745923737,
        -0.8019048936140535,
        1.9158265626810926,
        0.10482250137307274,
        -0.34897910733372545,
        2.0829600045906345,
        -0.6714616544034475,
        1.3043740172426421,
        0.5572480667697964,
        0.00537947197002433,
        -2.0810021298932386,
        1.3344791391055029,
        -1.7683155771028187,
        0.9073150993257738,
        0.1307455091655634,
        -0.09762010568613648,
        -0.49819355541852034,
        -0.5079914390386635,
        0.04233167244910756,
        -0.9849699105743813,
        0.7215192650919671,
        -0.10307651124606154,
        0.0015113398939964305,
        0.47767587942444967,
        1.2331266610246643,
        -0.3041362887809434,
        -1.043388270830837,
        0.40863525348599455,
        -0.3117858270487034,
        -0.8574916856534158,
        -1.4718898887077163,
        1.9951213306253144,
        -0.7921744131408183,
        0.16211407278248205,
        0.4120834643652882,
        0.5541721929541833,
        -1.3626712058110548,
        0.05868548210397644
      ],
      [
        1.3092005018915478,
        1.620490042389548,
        1.21165916990298,
        1.0780283068991183,
        0.6535743633087967,
        0.406199310387568,
        -1.1625569973882508,
        0.11061798220659508,
        -0.4343535449562346,
        0.07981345104286401,
        -0.5327863467848016,
        1.3763336551222403,
        1.657659779833308,
        2.763355956570452,
        0.5038405261570342,
        0.1912360277923169,
        -0.18403030196765374,
        -0.16608171295845814,
        -0.9296969941606915,
        -1.4737235386713166,
        -0.20729307017999396,
        2.515652073282935,
        -1.0233921319804422,
        0.20900154085600262,
        0.14240353506847245,
        -0.5974409868117475,
        -1.595474090283567,
        0.9772101887249705,
        0.5308921693291884,
        0.9994484798271043,
        0.5169730339460172,
        1.5060581556343182,
        0.26832657052848785,
        -0.012991725810338937,
        -0.3093322993941252,
        1.8593427501193163,
        -0.387536659236452,
        1.413177383088748,
        -0.05897679833201585,
        0.5318188322203865,
        -0.9365871487001796,
        1.873892219309088,
        -0.6280268970954078,
        0.3361480835529503,
        -0.07301657181582855,
        1.8158333335631078,
        -0.3522915626871909,
        -1.2610014965182723,
        -0.425593027682922,
        -0.039698976517437146
      ],
      [
        0.053132586939746485,
        -0.7122490124567701,
        -0.870297183061978,
        0.4925553212414397,
        -0.9831848888865792,
        1.0047773890082397,
        -0.318884448485903,
        -0.751011047402386,
        -0.5160916237177845,
        -0.15064539918917502,
        -0.19516545045347533,
        0.001806868319390122,
        -1.1685574972854358,
        1.2700931066751162,
        0.9932796521534365,
        1.9592290877365208,
        0.09325091796856773,
        1.8681702016420019,
        -0.3020070632957797,
        0.17861371461484207,
        0.56307822658036,
        0.8993063023888508,
        0.6318852426711243,
        -0.5733351159024159,
        0.6652862864207545,
        0.43669708387994216,
        0.18692087727080398,
        1.2580050574389874,
        -1.5733203135361586,
        0.4782542496970526,
        0.8058998391441223,
        1.2175599355464612,
        0.38545028968289136,
        -0.04432311771096964,
        -0.3785427919794367,
        -0.6640289203565256,
        2.0006943843499974,
        -1.9781134637074924,
        -0.03433031779788836,
        -0.860260299912375,
        -0.6825904047887601,
        -0.3236035440222072,
        -1.0373008375226465,
        -1.1825865058775331,
        0.007131731826304129,
        1.2959428621331543,
        -0.027865539013265647,
        -0.42356856749533667,
        0.09236016932870553,
        -0.8369345487629887
      ],
      [
        0.21524520792622007,
        2.0339782560337936,
        -0.1520728554240566,
        -0.7819240330177709,
        -0.4207670698628596,
        0.9443517394880849,
        0.14119707371076465,
        0.8441123099441039,
        -1.3317103797087193,
        0.18665481801071743,
        -0.7940124581832111,
        -2.6653377274807712,
        -1.8731344982363922,
        0.8132615918079997,
        -0.8487072779975987,
        -0.5281463893106122,
        1.6594232890423237,
        0.3432326083931198,
        -1.0161924724723355,
        -1.508772532715303,
        0.49371190541005444,
        -1.235512987302238,
        0.7981508543867084,
        -0.1611566677313412,
        0.405223163395011,
        0.09159022911137266,
        -0.432469372876739,
        -0.11636336920670902,
        -1.103240202644123,
        -1.1885800738139307,
        1.6046496618078092,
        1.7046024826542276,
        0.394847524281684,
        0.27007343102711007,
        0.5523813623504192,
        2.2375105408578633,
        0.31296070836559664,
        0.8239423410507741,
        -1.2326281593365576,
        -0.1336571215660755,
        1.2247014339318576,
        -2.1985508805941043,
        0.9609396119308155,
        0.9569737377931832,
        1.309703434866012,
        2.1311649101993146,
        0.2167766317290014,
        0.2369529899429763,
        0.3692528923658637,
        0.8641389146491866
      ],
      [
        0.4674139299535541,
        2.77869005172542,
        0.4615030322991827,
        -0.7242909791152314,
        1.3123655512913202,
        1.3909196244001305,
        -0.09368106548215135,
        -1.1104246092455885,
        -0.09011080270381276,
        -0.4278505398416597,
        2.4109957718586865,
        -1.409931220744154,
        0.3191825109647989,
        0.9558184666657512,
        -0.3570516055475798,
        0.564369667886777,
        0.10189493976552023,
        -0.5296422219335808,
        0.278749348657871,
        0.451585800225604,
        1.4613484285912024,
        0.5208204592664862,
        0.58136063318483,
        -1.3937959407660925,
        -0.41632451781796687,
        -1.638025844781391,
        0.29943770925619284,
        -1.1691678367134257,
        0.40101626255929956,
        -1.3402203234208578,
        -0.6862936923106784,
        -0.24948338695898445,
        1.5489875096418224,
        -1.0402553157490408,
        -0.5931043556436081,
        -1.3447547337005075,
        -0.14384106003519637,
        0.7999887317430883,
        0.8927343970226403,
        -2.088457926387496,
        2.7611840656970275,
        0.9966403278537432,
        0.47742648490537654,
        0.7434889424006208,
        0.5905730163609688,
        0.4625111965740688,
        0.27357565383049076,
        0.24477495449938125,
        -0.35183649610968076,
        -0.582327437035332
      ],
      [
        0.21714592647087083,
        0.07119642917468841,
        -0.3499008799046628,
        0.24665570831481734,
        -1.5015632223065556,
        -0.4475124715990714,
        -0.20313351732312318,
        -0.25549111857366524,
        -0.4250333793430936,
        -1.3842902267472053,
        -0.07446490970889211,
        0.19309566010765744,
        -1.1404335194420856,
        -0.5852756300831813,
        -2.860346195879254,
        1.1959349122542253,
        -0.5382905647375353,
        0.9358198072308548,
        1.7483131173378357,
        0.49243539843497347,
        -1.2410982793034633,
        0.9223412227897417,
        0.8369244351440153,
        0.20587231751487886,
        0.4903507188019539,
        -0.8033591947525265,
        -0.38465416717783835,
        -0.07678537510905713,
        0.6350879758152292,
        -0.6294421865505858,
        -0.7264392318365062,
        -0.0372145509288742,
        1.6848342595884325,
        -0.4496456051096479,
        1.9200013703768555,
        0.5552926553303204,
        0.1843078925900602,
        1.537654086083146,
        -0.5894119351909168,
        -1.5736200480973725,
        0.09209669607811506,
        0.8125694022186553,
        1.6251807289919873,
        0.9083811610514465,
        0.2568990485203583,
        1.3322859001467382,
        -0.4625541719148976,
        0.9263004948628077,
        -0.08800585906316068,
        0.9953152438057958
      ],
      [
        -0.655101167323266,
        -0.2979310316381847,
        -0.21041061778234801,
        0.9347572619838826,
        -1.639112419747095,
        1.1618887767272614,
        -0.5377817206918432,
        1.2700283005750408,
        -0.9655826856769562,
        0.9082526249275659,
        0.34853325309791217,
        -0.7611079030921223,
        -2.5095781197036673,
        -1.321928663855981,
        -1.246789807481858,
        0.3582073189156845,
        1.0742774565406683,
        0.31263098198573575,
        0.19558217866685584,
        1.3919127182190978,
        0.6743018159913751,
        -2.224480047545792,
        -0.8041476790045265,
        -1.4239502188942517,
        -0.7163953959047878,
        0.9696275118024605,
        2.446240436284219,
        -1.3307981299220326,
        0.8973225314494779,
        -1.988020401433604,
        -0.8478884733299915,
        -0.3472300808378455,
        1.769503527315278,
        -0.6766186057639344,
        0.7882533602298386,
        -1.7272581579690367,
        -0.3037644246994805,
        0.31077967880288704,
        1.1604171606903342,
        0.054560913542251004,
        -1.257843510633007,
        0.44540953021481466,
        0.32070538617989947,
        -0.6953809154102336,
        1.6773237258223073,
        -0.46497627688085624,
        -1.0438409015652097,
        -0.09375408106232964,
        -0.7368283132583969,
        -0.994574238643527
      ],
      [
        -0.7526113533404056,
        -0.5397421225276885,
        -1.1578484379390284,
        0.6135592227273957,
        -0.6417626794986532,
        0.15988532716233445,
        -0.03396869166938793,
        -1.5699121550664803,
        0.8525263455513266,
        0.47188882914961333,
        0.17673131848529894,
        -0.4718896369205361,
        -1.4387054263664192,
        0.6925813353895304,
        -1.0315789075416313,
        0.30721812078629385,
        -1.046413408458483,
        0.21823191828019503,
        0.5877265418363693,
        0.2342303295335275,
        -0.7075510681567115,
        -0.7902096585050041,
        -0.6820053228074731,
        -0.6378687279446875,
        0.5097922087501595,
        -0.7363150467291993,
        -0.7416321684929742,
        -0.4731259550741565,
        0.34419147928001464,
        -0.18024284299117263,
        -2.327973614479153,
        -2.2968311209776124,
        -0.21356175048460446,
        -0.13621537941347844,
        1.5008126047731227,
        -0.9796233384189977,
        -0.18026467315630468,
        -1.0974165668061564,
        -0.37735582978121485,
        0.2836207195325888,
        -1.0432288210508083,
        -0.37449929403535703,
        0.6124254317689324,
        1.143485554714961,
        -0.7929193127658786,
        0.06426493700817458,
        1.3697253546927355,
        0.5280448548454104,
        0.28648622423262554,
        1.8110486476092131
      ],
      [
        -0.03167867578494748,
        0.06761975009144071,
        -0.42709679181241816,
        -0.31615222573493845,
        -0.12134075925679964,
        -0.15347399303482862,
        -0.637449494693122,
        -0.32392939148618854,
        -0.24788783389617264,
        -0.4508247248814981,
        -1.30731401621692,
        1.5282843389038554,
        -1.0007945429706084,
        0.2845935231244763,
        0.4832822104653114,
        -2.0565585741504195,
        1.3090134281438244,
        1.4754042491666757,
        1.9186418193357193,
        0.016294588488701522,
        -0.4073479665647604,
        0.09747096425440749,
        0.2871418620413674,
        1.33149495614718,
        0.267294940751119,
        -1.2141564433704428,
        0.0631154904520705,
        0.05539677642025289,
        -0.4434237249198724,
        -0.17603218333150614,
        -0.6821893395965738,
        -0.8226419709812763,
        0.39209221398998506,
        -0.9328282370261861,
        -0.6286139936543808,
        -0.13161838584250207,
        -0.8436668796873104,
        0.5030270031224983,
        -0.8941896373421716,
        1.8457985112257946,
        0.5394306029647389,
        -0.3054399602398946,
        -1.5837103126623493,
        1.5799986492786227,
        0.8516177804335906,
        -0.1764291032581127,
        0.45312289737308975,
        0.10272477944378935,
        0.11101552806785304,
        0.902350464826673
      ],
      [
        0.42022034620259935,
        0.19053837940318732,
        1.1557103861072204,
        -1.154650973247437,
        1.367577169596337,
        0.4213747939110844,
        1.404061202264854,
        0.579773843729728,
        -0.4714796005498951,
        1.352517815805985,
        0.29736047334181903,
        0.12219904061515574,
        -0.22702789625531772,
        0.36921588915338754,
        0.2075871309523759,
        0.2762618745095175,
        0.27293753405279647,
        -0.9329364929308077,
        -1.586184378922147,
        0.33993663107569,
        -0.257419619999704,
        -1.032593442945816,
        -0.5381371155227037,
        -0.10426564602265298,
        1.085351619859538,
        -0.415513551986181,
        -0.3747705251329727,
        -0.14439819894284364,
        0.15024278517541337,
        -0.2148278217773482,
        0.6026692815831298,
        0.6165439096638649,
        -0.5555681261768831,
        0.7769707161781525,
        -1.2934982566529718,
        -1.08129004866172,
        -1.3428252768814128,
        -1.0223590343062283,
        1.4971582178561162,
        -1.3463991786084695,
        -1.8580129222098247,
        0.4453628992868562,
        1.3570105516221653,
        -1.709526135098207,
        -0.474774521839979,
        1.9093098445336183,
        -0.33808642153068585,
        0.3913964172536526,
        -0.4730129426622386,
        -0.6767672658949936
      ],
      [
        -0.6490341542237137,
        -1.602234755902063,
        0.14286400417092765,
        0.9972300847105855,
        -0.008766101268230804,
        -1.4772255270326538,
        1.3743271493473397,
        -0.4567402216846059,
        -0.011206559242524368,
        -0.8688532372036177,
        0.22920665973709248,
        -0.5491117804659195,
        -0.3405273674812872,
        1.0789966980240722,
        0.6842291407335662,
        -0.1974196117896874,
        -0.044739615998469595,
        0.41722711942044277,
        1.1086265158529505,
        0.08251012184558693,
        -0.5492675349498075,
        0.43323600767713255,
        0.32412837967136815,
        -1.164107480924816,
        -0.5289913420833087,
        -0.5715317652327485,
        -0.5556931380540446,
        -0.4332734709326546,
        -0.21905787762470283,
        0.2522543550822007,
        -2.287006124894311,
        -0.1112558738385793,
        -0.17629413211671544,
        -1.1206026634421136,
        -0.8709792645272394,
        -0.9250971687958753,
        0.4473639775055145,
        -0.32532345710466,
        -0.20580317839352275,
        -1.601082208227277,
        -0.5271699630745545,
        -0.0488468017058589,
        -0.21071130302974803,
        1.0336902260726797,
        -1.624081361143183,
        2.792206305181785,
        -0.9607295140039543,
        0.902613479788271,
        -0.5218224619393035,
        -2.0769540220116176
      ],
      [
        -1.3642864147606688,
        -0.2428753089592642,
        0.2271959636175942,
        0.06356382702222396,
        -0.1279350950316187,
        0.9568417615667331,
        -0.05926718656122767,
        1.0385167585204564,
        0.43889602535993977,
        -1.1765018612370812,
        1.1133684548657674,
        -1.5322476356066792,
        1.114088685703211,
        -1.2572203799876707,
        1.74540946661175,
        -0.03034748389758977,
        -1.3203308180167852,
        -0.257994881978114,
        0.8597111080647901,
        1.4475481107755366,
        -0.7933154772868406,
        0.7606519534617444,
        0.18245233269364108,
        0.7134277891860232,
        -1.225860356855775,
        -0.32800196237164664,
        -1.4595439947402264,
        -0.3157308129915448,
        -0.6459306298829106,
        -0.8041344486934622,
        1.1327376610159137,
        -0.25720381905330675,
        -0.37917538564052217,
        -1.3020528307902979,
        0.8151481854152783,
        0.6935763753612955,
        -1.2601649775861565,
        -0.7124494932830104,
        -0.3831256981845812,
        -0.26102317481350246,
        -0.2642893928645976,
        -0.14240081645671138,
        0.2279510693510818,
        0.35005595610910756,
        0.11630863151879683,
        0.37288200347207395,
        -0.9252830263327264,
        0.3908194153655233,
        0.7632336221321195,
        -0.3180857906855133
      ],
      [
        2.6185133134772913,
        0.6557531933456643,
        0.256268621711882,
        -0.4447340137357423,
        0.019389528314778234,
        -2.0849395212764965,
        -0.07823206517801087,
        1.2392762325750115,
        0.2593267725775161,
        0.05234546193171343,
        -0.14854564530051978,
        -0.24622568060582747,
        0.528828039518305,
        0.23561880618542258,
        0.6478991930890137,
        0.5664301224017088,
        -1.2853664896579535,
        -1.5303101705966673,
        -0.30835140038245146,
        0.9648494311989328,
        0.19422666091706856,
        2.383371895244853,
        -0.9610255706065204,
        0.01814558873312147,
        -1.1230630740351943,
        -2.0379350379097194,
        0.7281130017137799,
        0.5072062223051492,
        0.3188945790552231,
        0.6567271826444742,
        -1.0639372089377725,
        0.6347031299007356,
        0.1746472741696847,
        0.9134613331260447,
        -0.9562359265960484,
        0.6427075694680575,
        -0.2715518747357165,
        -0.25108939668668856,
        -0.13052920924649092,
        2.053028480638594,
        -0.19127894744601034,
        -0.01979419622075975,
        0.710068323183192,
        0.23172916762961498,
        1.4768765471242893,
        -1.1686584067297978,
        -0.2708346450977889,
        0.12078220894662449,
        0.34503437960610717,
        0.22020546853578268
      ],
      [
        0.5417428269414598,
        -1.2852839396846807,
        -0.07886511440781764,
        1.0856209996117239,
        0.9213461643685364,
        1.7918068612029856,
        -0.18688248234857815,
        0.9020769737016894,
        -0.05988584606303498,
        2.125722407514271,
        0.22913206073337447,
        0.11497412023470376,
        0.36208440811449805,
        1.6217145701928073,
        -1.1507188597632676,
        0.27613299227787225,
        2.1940674123902832,
        0.0705967133665987,
        -0.0414329309653488,
        1.6515240974011858,
        -1.0884276935418002,
        -0.12903503901389818,
        1.4493738965931997,
        0.717695270251131,
        0.3930238761483916,
        1.9628161569376101,
        -1.2883257063426417,
        0.6028324375282247,
        -1.0283071470266878,
        -0.4597081110716661,
        0.1264829877476183,
        -0.5792739991097556,
        -1.5665075836903686,
        -0.630212007932036,
        -1.5836966223617945,
        -0.6714527521985888,
        0.22173368331917495,
        0.4032287004258441,
        0.48737610771550016,
        0.6234080855362626,
        -0.15130635609123208,
        -0.7077038064340612,
        0.8010193569727748,
        0.9321439151602218,
        0.7576637239903138,
        0.14558068081597395,
        0.242785686519781,
        1.0138908026557867,
        2.3805582764137214,
        -0.5207951132222647
      ],
      [
        0.43948703974235986,
        0.2480900127444228,
        0.06515749782012956,
        0.22091882671896731,
        -0.8079622560929679,
        -2.15473997607049,
        0.2123254508867327,
        0.1422803724257246,
        -0.6188000875008842,
        -0.2663262476822504,
        -0.7043567150989606,
        0.9558166986959505,
        1.5940785094992496,
        2.9176989186878095,
        -0.46927158608738007,
        -0.20411709672982367,
        -1.8835111836305032,
        -0.8137547682461869,
        -1.3494105409335377,
        -1.6212743578308122,
        -0.7240659040919255,
        -0.8160184704575768,
        0.003310869181621643,
        -0.863142742224427,
        0.6565057351255137,
        -0.2267042301379472,
        -0.4623231858232401,
        1.2207030176522715,
        0.5403403336677945,
        1.4209913285927667,
        0.9306624024420365,
        -0.5595037182061261,
        1.7169872971805582,
        -0.06626169743200339,
        -3.1733261795916805,
        0.7085065392398793,
        0.5370663944673355,
        0.6900703263888072,
        -0.7149934017881951,
        -0.15712170008535528,
        0.1521041798598183,
        0.4164901091086656,
        -1.789427651275036,
        -0.05020516686150231,
        0.7043750211731188,
        0.31397965637492886,
        -0.636475287739947,
        -0.7808903000428686,
        1.5524823425850733,
        0.5350808554215486
      ],
      [
        0.018026071338141048,
        -0.05210304625580628,
        -2.0958540111020496,
        -0.5071652266272793,
        2.3369395217605344,
        1.1666112060104474,
        1.9663331473721741,
        -0.6736033338216515,
        -1.5378502700882175,
        0.2447858738033842,
        -0.969758911395281,
        1.0317575250300342,
        -0.1745086287475343,
        -1.3014680956644336,
        -0.6635716484037635,
        -1.1544360318513385,
        -0.1914152283687157,
        1.0899012026986836,
        1.3954868180530127,
        1.1769225173579103,
        0.4219306229786338,
        -0.9107795105600188,
        3.367383022786727,
        -0.8613316081667963,
        1.1968997581164809,
        2.85104885645685,
        0.19838938675303802,
        2.9513588598422027,
        0.4691182473846139,
        -0.9107499096295887,
        -0.02313335191867961,
        -0.5552405133051372,
        0.5981983963082982,
        -0.6896530037602369,
        -1.4529870442710953,
        -0.1693052210429565,
        0.7780025349783899,
        -1.0026364993130377,
        1.7264185031064572,
        -0.4467124857611798,
        0.7901913055092422,
        0.8941837842216808,
        0.5961475923433364,
        0.03343182947413497,
        -1.016911285948987,
        0.7674715031316972,
        -1.4953975003914015,
        0.299485969184104,
        -1.7030104246604365,
        -0.39489009927262064
      ],
      [
        0.3872657311106898,
        -0.7293011010042411,
        1.5877561771134507,
        -0.18090282901266552,
        -1.1050960877508238,
        0.15096968722966267,
        -0.9867104400413584,
        0.0005457284377928621,
        -0.721832699708097,
        1.496944521652144,
        1.2613634982529234,
        0.6574720616749581,
        0.665136142548743,
        0.0050229821440112175,
        0.5858969485285334,
        -0.03573793422014011,
        -2.2409917425289683,
        -0.43186464046573136,
        -0.10737945859598325,
        0.13751405232448763,
        1.2220906984729178,
        0.073953655217752,
        0.9234284471097872,
        -0.6545193514687575,
        -1.5502220975501084,
        -0.5321354332709861,
        -2.527845579447308,
        1.1413769668786764,
        -0.564986791593483,
        1.1357292377117834,
        -0.845791433674236,
        1.0045219043125029,
        -1.3646288730576215,
        -1.5530847549348366,
        -0.332100065046531,
        -0.2953853904704562,
        -2.169909492255471,
        0.15969421863335023,
        -0.45208150893663956,
        -2.446631125954242,
        -1.3400206332025144,
        1.0555109432955683,
        1.7554102021139892,
        0.8341932950256089,
        -1.2034423116613873,
        -1.274976528336275,
        -1.7096417460577367,
        -0.17103234676360318,
        -1.1328683432514401,
        0.5065322382983872
      ],
      [
        -0.1754773615032962,
        -0.9868211409732291,
        -1.4662535688508616,
        0.662766107054429,
        -0.33037266168724605,
        -1.3828065004204053,
        -0.6823391079158577,
        -0.48609197824391076,
        0.44449211328494925,
        -0.460655571165604,
        1.0440594357680204,
        0.27758266083411887,
        -0.41846968006933993,
        0.4132125131663387,
        0.00548785381557729,
        -0.3428509715831734,
        0.5741119147768144,
        0.4530270922332028,
        -0.2640703300394604,
        0.20753404248995627,
        0.015650698907011304,
        -1.1937321880207152,
        -1.6087543768833636,
        -1.4073854802154195,
        -1.5947025834198574,
        1.2139214044733107,
        -1.1210843946108926,
        0.5591017397656678,
        -0.030662865732192582,
        0.738659961725577,
        -0.4128584302422125,
        -1.1261707793265083,
        -2.077979619544649,
        -0.42744923529336226,
        -0.8743423555627188,
        1.0646816091694387,
        1.5537159256250823,
        -0.14545611729947922,
        0.04524310807521269,
        0.8656786247661598,
        2.5642755138246827,
        1.620730889439785,
        -0.6647712665352445,
        -1.0645634906927937,
        1.1901995034798372,
        -0.5670773645836898,
        0.848524473571749,
        2.46700970335464,
        0.13395012592999325,
        -1.4206153713059786
      ],
      [
        0.11220327422953331,
        0.14804032402610226,
        -0.25286746772158364,
        -0.4165533453525807,
        -0.20442798672869772,
        -2.2962009747886745,
        -0.37971278439387707,
        1.3712279537145222,
        0.14339000735583762,
        -0.7525960144396703,
        0.9215877197415822,
        -1.3581330987712639,
        0.1269210388293719,
        2.3127496675155808,
        -0.9783511798757075,
        0.49608690313542525,
        0.6626463737274974,
        -0.10412496645850496,
        -0.14258109246285508,
        0.0835003376557741,
        -1.7824984398087098,
        0.6407645575793464,
        -1.3340791545954847,
        -1.2161361044288534,
        -0.015871128310182017,
        0.7985997823540815,
        -0.4286475663924187,
        -0.7399677095281344,
        1.843270207963639,
        -0.20614870808073926,
        1.7195910156574958,
        1.1196972830352092,
        1.0440774569433784,
        0.1872101035269069,
        0.5490079294695117,
        -1.0672403172532854,
        -1.2234713034423963,
        0.24969874173833617,
        -1.261785265364785,
        -0.09607684767585345,
        -0.36950509975596835,
        -1.2222444628628968,
        1.0331394530039,
        -0.517535352446498,
        -1.5275402236440139,
        0.23969583735389832,
        -0.8474590787730742,
        1.1728947422586826,
        0.614049833463248,
        -0.30603744305700875
      ],
      [
        -0.5321684911526146,
        0.3385801416047297,
        0.14561708467151463,
        0.9690692536393085,
        0.07104953043596482,
        -2.5888716906477787,
        -0.8277623850973892,
        1.0137394809838212,
        -0.36819595810894495,
        -0.20580240563727492,
        0.23092642671539662,
        -0.9459180387395293,
        -0.04984673425001123,
        1.3193611452029148,
        -0.47812564456376105,
        0.4128772819718131,
        0.03996607644639394,
        -0.25509895078759837,
        -0.47936019851120776,
        -0.262543468671315,
        0.48882530622399395,
        0.3004213713684643,
        0.30819355678471433,
        -1.6987655291533932,
        0.3035926952429311,
        1.035685731414153,
        -0.57110504655372,
        -0.529341864900404,
        -0.851024129658214,
        0.5211226689758912,
        1.004526668137264,
        -0.009084793481968853,
        -0.509621294328014,
        -0.5375546377741455,
        -0.855300835497114,
        1.2602265153646754,
        -0.36462920366734114,
        2.3068494857264135,
        -0.22507004019451438,
        0.6771052083079152,
        0.31672183132434106,
        0.7873171121522077,
        -0.9994546413084643,
        0.22739538737708268,
        0.8605023259207709,
        0.1911635954909904,
        -1.2217540994768996,
        0.5948414331084713,
        -0.4786838413686522,
        0.7341130197431368
      ],
      [
        -0.12144974969742744,
        0.16162891960134892,
        0.47718521949226267,
        0.6662901046907534,
        2.022847324521394,
        -0.2511576335441872,
        0.3997898345270997,
        0.534560330361935,
        -0.7357937749579967,
        0.6422843220068877,
        -1.0165946412823894,
        1.5588187369641926,
        -1.4026212098934476,
        0.762121579699804,
        0.3498715567419742,
        1.1172106373877915,
        -0.28509226813179717,
        0.6080799454252419,
        0.20211356344494427,
        2.0289294933131163,
        0.38986041166326085,
        0.38270028253427896,
        0.05263253951284911,
        0.49856055552973283,
        -0.5200774652492521,
        0.5570232741029996,
        2.059910273712282,
        1.2230261694650129,
        1.6928928726676766,
        -0.7992670341100544,
        0.6560873373789666,
        -0.3859360255076175,
        -0.41816431407516974,
        -0.18646162434354172,
        0.8090844681256711,
        0.3953234864109989,
        -0.012311586082970434,
        2.2277330165499243,
        -0.6316176224465595,
        -0.5442083196156908,
        -1.5663604171202994,
        1.1264517742906985,
        0.30893577351627044,
        -0.007077697720562759,
        -0.07120490163036577,
        -1.080623470652455,
        -0.5874426607867894,
        -0.6687013001718898,
        -1.4355967439250923,
        -0.494865770249083
      ],
      [
        -1.8139832127792583,
        -1.1636150250278157,
        0.3433804136307326,
        -0.5403263548745583,
        -1.0045787762750107,
        0.3071256297328746,
        -1.5188701037376102,
        0.7873710495947324,
        0.9722110482273496,
        0.3710409752096571,
        -1.2907456008452203,
        -1.6092353763747418,
        -2.147181193265534,
        1.910624029634068,
        -0.36532297239289213,
        -1.232147479189866,
        -0.7311119621941895,
        0.6502333974701162,
        1.0984664610391544,
        -0.35369604671474947,
        0.5332084172941607,
        -0.8295432877541008,
        -1.1416376391115073,
        0.05349596786370717,
        0.2826925885496001,
        0.4676870286362874,
        0.49384306970820124,
        0.034801697446692814,
        0.17336296672406037,
        0.9005655236163775,
        1.2362990904467976,
        1.7959580231131045,
        -1.8922605343090713,
        -0.8174726365217202,
        -0.21465426730626866,
        -0.10187950378119554,
        -1.4416696605589618,
        -0.6954089147591735,
        1.9212825148614308,
        1.6885667363660288,
        0.6427571835020056,
        0.20524829536080305,
        1.0171601598503963,
        1.0306336687019033,
        -0.15558407802581192,
        1.0061042079398823,
        0.16204242617212772,
        0.06338659629476999,
        -0.8901785126259321,
        0.0595646898409415
      ],
      [
        1.335386492015322,
        1.709106793038824,
        1.1720941217766954,
        0.6379171999077102,
        2.105010468298843,
        0.21251789172838678,
        0.9967091630423535,
        -0.04070123338434295,
        -0.3658674644155493,
        1.4871284424362852,
        -1.0869050138902834,
        0.969716759692847,
        1.6141086945010121,
        0.9450298123610928,
        -2.85519075610136,
        1.1937581793606877,
        -0.4263102380508756,
        -2.5402395573977983,
        0.5029368241527682,
        -1.1575758011348671,
        0.6252027173144454,
        -0.17203695647564052,
        0.15965446754805057,
        -1.2626167294276263,
        0.3570526004424324,
        -0.5448801623523282,
        -0.7149742854526525,
        -0.008616212752671625,
        -0.3131685964618072,
        0.43906243988439503,
        0.7180265018820582,
        0.1816138834145273,
        -0.07296023552566444,
        -0.8405394988112758,
        -1.1719891271560576,
        1.3247589612075965,
        0.024338630316393148,
        0.3866620781278219,
        -0.492401878805113,
        0.7482141731108202,
        2.050424755798989,
        1.0157439778165724,
        0.17390871139856912,
        -0.036519826387849154,
        -0.34626796072117855,
        1.1444268695388027,
        0.4383729142336225,
        0.07063898622720223,
        0.8225844450290783,
        0.38602295153859434
      ],
      [
        -0.04828757012360454,
        -0.2888084223598587,
        -1.446723303440531,
        0.3896992517201274,
        0.8246872673310176,
        0.6971798041956228,
        0.8528489790702879,
        -0.5627277417829729,
        -1.896096409470839,
        -0.025568127434438634,
        0.4356376072327112,
        0.3611950395252388,
        0.8736739364783249,
        0.4203339094781601,
        -1.7899454439516234,
        -0.8317176981816732,
        -0.2868111179604365,
        0.5333848077739193,
        -0.3963652684879852,
        -1.1592790346437651,
        -0.3468908927806833,
        -1.7223219386965913,
        0.3110489079443542,
        -0.20961000167655006,
        1.63952751486747,
        1.276043712309153,
        -2.0788328922047983,
        -1.1121449068584257,
        -0.49539565569452026,
        1.8138564545691964,
        1.037961384216907,
        -0.5900745030062858,
        0.06117377698632358,
        1.1018192053623825,
        0.09496240486947366,
        -0.23908721600569643,
        1.0240663410405522,
        -1.2085238642049652,
        1.3699795707250948,
        0.32185398852496017,
        -0.35779453128357747,
        0.16932110888522653,
        -0.8299248357375519,
        -1.068157377906343,
        2.2987619686621428,
        -0.11015651537739925,
        -0.22056775526666084,
        0.3054757415537236,
        0.3640090439628915,
        -0.7927592750337072
      ],
      [
        -1.2686719770431774,
        -0.16704328592082232,
        -0.7652302716029569,
        -0.1476636586666098,
        -0.6014546613976137,
        -0.32137410290945334,
        -0.5299528595089175,
        -0.7830429206703684,
        1.8129952090760353,
        0.5939556968611646,
        0.1909074658158839,
        0.06519210297964882,
        -0.7695865482811715,
        -0.8190498022636162,
        0.0017892015866002283,
        -0.0512163331774978,
        0.19449482729394432,
        -0.7183784315149682,
        -1.2051268116068323,
        2.6658514529960793,
        -0.7475583519817359,
        0.6996621715982958,
        0.9068464992787285,
        -0.17214176090705732,
        -1.1281026653682589,
        0.07508414340438793,
        -0.8207532116669232,
        0.6358840342350055,
        -0.5076117926625614,
        2.410791591737026,
        -0.6475273722094144,
        0.48714922243573616,
        -0.18313735593637492,
        0.46217673494689016,
        0.8506202786818807,
        -0.7031545874882035,
        -0.1389053977702575,
        -0.6677212822091901,
        -0.5389721838957401,
        0.006603140980390839,
        0.4949155285412184,
        -0.1320881651584895,
        0.0887387625314107,
        1.4479097643963124,
        -0.005371098860490527,
        -1.458092065897768,
        0.14448999230228682,
        0.9142126950161558,
        -1.3881483296473673,
        0.09300948542616648
      ],
      [
        0.23743140750363442,
        -1.3304817209905209,
        1.757847064414257,
        0.924686139989153,
        1.2587184502242035,
        0.5290610797941686,
        -1.3559060736810205,
        -0.3355952272315868,
        0.9557954436288092,
        1.0870755937651333,
        0.9111519646075011,
        0.8603490866058422,
        -0.32567677447250304,
        0.5305700416956879,
        -0.4888309932104157,
        0.5708817086109207,
        0.9395099006065161,
        2.4291633791683602,
        -0.5943030239975866,
        -0.24602738147666822,
        1.1336662804969893,
        1.5349984960099732,
        -1.4370584223385499,
        0.5586094416298492,
        1.1505591110411169,
        0.5859078042494743,
        1.4239429224975608,
        0.18181087511788419,
        1.7373991583048862,
        0.40672272194177655,
        2.6430822315681968,
        -0.01785734071440362,
        -1.9873275347050803,
        -0.3995650771761383,
        0.1698600294001635,
        1.8060074794194019,
        -0.4363115677515329,
        -2.098143763013771,
        0.03904939090844934,
        0.48541419999877583,
        1.1850463639460989,
        -2.4257425530600276,
        -1.2116984318935513,
        1.647774864051505,
        1.2053253337751852,
        -0.1195276928877465,
        1.931948462005342,
        0.5957279187051097,
        -0.8726191327861609,
        0.3607127841214726
      ],
      [
        -0.5224239537740252,
        -0.08230399365472338,
        0.64152202209413,
        -0.624879602341203,
        -0.5456640623880618,
        1.4035803201841293,
        -0.7675684658175532,
        -1.1052061461722915,
        -0.29416561611380937,
        -0.4760769113334137,
        -1.021962471887116,
        0.7762569341746867,
        -0.22211150091235368,
        -0.8163675953459992,
        0.9042583643951638,
        -0.9194613958853719,
        1.1772949690353416,
        -1.6837566771620416,
        -0.5463031189942703,
        0.6157648583099501,
        1.0906519650553437,
        -0.790003063633895,
        -0.6333492274459404,
        -2.3196082422417508,
        0.8741321680419862,
        -0.6768185528677673,
        -0.9536447426656081,
        -0.07832418675777593,
        0.563195205185357,
        0.7187735382660244,
        0.13787295511520165,
        0.05429027162965941,
        -0.03276425061760237,
        -0.38621351922117103,
        0.049324562768302826,
        -0.42490236724551467,
        -0.8349164409611638,
        1.5204184592016892,
        -0.045414414575568,
        -0.7057252022336202,
        -0.04173784130126784,
        -0.17498968775386184,
        1.5014818309689375,
        -0.8939595411210862,
        -1.2413798026081964,
        -0.4953594575562102,
        -0.2780416401828534,
        0.14554300532830097,
        -0.5791382505322754,
        -2.170152874794736
      ],
      [
        -0.34694693026142853,
        0.5798379717402355,
        0.23599970667999867,
        -1.0008694027659137,
        -0.801678069914782,
        -1.121764476779059,
        -0.2005385170469634,
        0.02139570809836981,
        -0.2133278256375237,
        1.301776651981302,
        -0.8713735792116155,
        0.6626070259722265,
        0.0841715069337635,
        1.9320858258420355,
        -0.7754504571259976,
        0.954761552974131,
        0.18042027167799615,
        -1.034087288732743,
        0.02849307480312584,
        0.9005110707119108,
        1.4583528877243326,
        0.1956383236838838,
        -1.0455737234603026,
        -0.21446112483659252,
        0.8262273124066785,
        -0.7740839033481334,
        0.8548136044311345,
        0.5858901246527332,
        0.012553480295483827,
        0.22191344497306398,
        -0.08451797793499383,
        2.034960683667963,
        0.44157377579559126,
        1.1144425842664214,
        0.5177506646537008,
        0.5747893569813207,
        -0.6415052180458154,
        0.9247511272234279,
        0.3543775799252776,
        -0.360467820692558,
        0.6070996230619974,
        1.9822570285581487,
        -1.2675683351301952,
        0.006778230551739956,
        -0.9088196925311447,
        0.2000296192876738,
        -0.7018682637756304,
        -0.5174774176986526,
        -0.2505065128521877,
        -0.04902637672685397
      ],
      [
        0.9378360357393897,
        0.996361539179377,
        2.70304067783367,
        1.9967305343160855,
        0.9086198517357237,
        -1.4269003887766316,
        1.013189065163585,
        -0.8494555802406379,
        1.1649775658416648,
        0.9688294660468496,
        0.07798606035180307,
        1.6302644444852528,
        0.6042741714470615,
        -0.28149946493695566,
        0.6106238670411154,
        0.4321299317722314,
        -0.4725563483321585,
        -0.6149748060564075,
        0.13624506997044022,
        -0.3575225697494688,
        1.0047099444389263,
        -1.2824705807319419,
        -0.30586295008241593,
        0.9859403012255771,
        0.6599863672046632,
        0.18049762488930532,
        -0.66510074401116,
        -0.4240610465293152,
        0.8108290414113102,
        0.14696146610352265,
        -0.6161313970876188,
        0.8057041046061012,
        1.3314515397420392,
        -0.4953059494534746,
        -0.028406695495471486,
        -0.6938907740749329,
        -0.2556308105808167,
        -0.7580504038412174,
        -1.3125850473396534,
        0.16744089550721214,
        1.2034092160862222,
        0.3953781745409518,
        -0.06248558164217739,
        -0.7637783423689948,
        0.7885624685861444,
        0.16146284138070358,
        -0.9231208339505174,
        -0.6763472045497438,
        1.7188035722971837,
        -0.6942793169817935
      ],
      [
        -1.2294326938073057,
        0.10084166034480599,
        0.04249097912440453,
        2.4858391165224023,
        -0.3039125917499036,
        0.9809890241239299,
        -0.46085679400390106,
        -0.0761254098509621,
        0.13762954012470818,
        1.940963947967079,
        -0.3385144719090915,
        -0.3763189732405796,
        -0.31455582569224355,
        0.5608555251816093,
        1.2048925814360136,
        0.6818905127841804,
        0.6843393777765883,
        -1.6812379261628452,
        -1.8692779770170016,
        1.1473642414168435,
        1.6835876578175843,
        -1.3791044103469916,
        -1.3995459220180155,
        -1.2426497237862937,
        -0.21025221862517174,
        0.16280544172416514,
        0.8262992020474473,
        0.4058504230020388,
        -1.6612634232211863,
        -0.3337111191128371,
        1.0946067058495539,
        -1.0141781594771337,
        -0.8377882015678308,
        -0.7342783334584293,
        -0.1443330132766463,
        2.0113889925616655,
        -1.2231100702368003,
        0.33500753205137324,
        -0.193014316761702,
        0.5282421904768936,
        -0.42229602265097443,
        0.5741827157915311,
        -1.0381305673591508,
        1.9072359439882194,
        -1.1621081234089305,
        -1.1034855998027226,
        0.5387084920366687,
        -1.3299214636521204,
        -1.0585856489847087,
        -1.8205790018552153
      ],
      [
        -0.4495273409823453,
        -1.3038610936780652,
        -1.1571268640860437,
        -0.043306439922601074,
        -2.205640944122264,
        0.5876795633342292,
        -0.2750020259273438,
        1.245545534116298,
        0.8227675372988613,
        -2.32036734856465,
        0.7069475162945255,
        0.7263248014689676,
        2.6548236575394477,
        -0.46731453122467637,
        0.7285467906781764,
        -1.072685108237373,
        -0.16435293352895777,
        0.7000779405464318,
        1.7467996847184484,
        -1.048661690523983,
        -1.278276567106534,
        0.5764425418010773,
        -0.5852574097820024,
        -0.6373321474138494,
        0.13696095599125205,
        -0.027252627358804394,
        0.2317423067932738,
        -1.0920145145557894,
        -0.7406188584130793,
        -0.6818789461911904,
        0.7301727835952395,
        1.2200127361328865,
        0.5918694604644299,
        -0.7310947917328021,
        0.08627130341641567,
        -0.1314759687552589,
        0.7058162985813975,
        0.13238897947025383,
        1.877190307251283,
        -0.22334200462691195,
        -0.3617213107393178,
        -0.17403369405077512,
        -1.0090080411063145,
        -1.0056061386852762,
        0.079170260074896,
        0.491431794466786,
        -1.2850481544254737,
        -1.235916737824875,
        0.5152929544705466,
        -0.7647688746417133
      ],
      [
        0.5263203044002137,
        0.02503666899263484,
        -1.0645501811101423,
        1.7030111379251887,
        -0.9005370875328979,
        -0.9340531130156999,
        1.352362862332243,
        -0.7460780503123382,
        1.1471577016223378,
        -2.1779812482944694,
        0.036374863581801815,
        -0.4289966472513117,
        -0.00351746730338218,
        0.3238554975848669,
        0.311784293312747,
        0.0773511035992895,
        -0.5035023102024604,
        -0.2205105337861627,
        0.8772670542487522,
        0.6705325726549559,
        0.2376663737506515,
        0.6005768528300335,
        -1.2776208959916382,
        -1.5895893598294923,
        -0.2515345994291979,
        0.11903425270300699,
        -0.4728514142770119,
        0.7648660664902139,
        0.3297644683685498,
        0.038331878666758044,
        0.08859755582522667,
        -1.4407604259110458,
        -1.3277568150172134,
        1.075756400842438,
        -0.9845949190761717,
        0.2858925750014686,
        0.4801535372897512,
        -0.37392071471336086,
        0.0795519280097109,
        0.5407133443960711,
        -1.0596355729433717,
        -1.4932635266045176,
        -0.3712075886801567,
        -0.659131314499165,
        -0.6817673446102017,
        0.4185016248316085,
        -0.7997986196751123,
        1.354055800777627,
        0.5263514274408455,
        -0.03787739042133376
      ],
      [
        1.0560460803837028,
        -0.5149264830148549,
        1.0257405483144586,
        0.3811531277934919,
        0.07939790132547901,
        -0.5297208529769145,
        0.4858952663988947,
        -1.1389963519729949,
        0.5302598718193804,
        0.13697761787346288,
        -0.3483032513221287,
        -0.8187980930746229,
        0.2499106034566298,
        0.3467970906164386,
        0.3094689395506678,
        -1.5035650929210176,
        -1.2497359156972883,
        -2.317859075522951,
        0.1732395841542907,
        0.17467757232350353,
        -0.6251581052067026,
        0.6123013591825393,
        -0.356163511381807,
        0.4177982870007317,
        -0.6180824837320368,
        1.2133840767902215,
        1.8605524821063983,
        -0.22340657786519524,
        -0.8394263397046575,
        -0.5585718230384128,
        2.6235270702590197,
        0.9432778095046375,
        0.9634395184915119,
        -1.0867752532969186,
        0.5280964385943482,
        -1.632011570341438,
        -0.03569372405907139,
        1.5892917218454286,
        -0.09122023098808305,
        -0.477017596261155,
        -0.541512000860944,
        -0.9549890373615095,
        -0.5294800622616148,
        0.9688368200511739,
        -1.2583523577212798,
        0.20719373135318644,
        -1.2527584857780096,
        -0.84208454220445,
        -0.7869374595569271,
        1.8164965316815769
      ],
      [
        0.9048485179648728,
        0.5724964378160927,
        0.48110277205647534,
        -1.0616619836822827,
        -1.3187352996113186,
        -1.028598300814616,
        0.9897234120424604,
        0.6085747913549544,
        -0.44536018028373675,
        -0.17395930237874124,
        -1.4335996143774608,
        -0.31870327960373096,
        -0.8373456843352732,
        -0.06854072244758024,
        0.1073735196840305,
        1.6360249767597677,
        0.37115492320308846,
        0.8889613753677315,
        1.2209441569205441,
        -0.6103408542733694,
        1.7261445356407439,
        0.06076649704560817,
        -0.20924613086799848,
        0.3267629920688664,
        2.5983094052503684,
        0.14139094187599208,
        0.14702020990382178,
        2.5982580325206075,
        -0.8411747631507887,
        0.11730034874042619,
        0.07147893028647548,
        0.5369564656188284,
        0.6027738471319007,
        -0.7269077117869822,
        -1.7797417177177939,
        1.4717215625377882,
        1.257433874892678,
        -1.255543456936506,
        -1.8801405180977488,
        -0.4587788794111196,
        1.3732825437766412,
        -1.6337328388035113,
        1.0214722821226982,
        -0.1858881161937462,
        -1.8535325288211824,
        0.6114412505522278,
        1.9233726966276077,
        -0.26505258658998787,
        0.8019437907024904,
        -2.0144459219834943
      ],
      [
        -0.43006898442607033,
        -0.15346200798055573,
        -0.8476159430975818,
        0.47136036222845185,
        -0.35267937569900204,
        0.30734530202089716,
        0.8827551731754586,
        0.43434071325333046,
        0.37714781612884457,
        -0.2896489173599321,
        0.03732828437309837,
        0.3679556582099837,
        0.757056991672473,
        -1.2621746237429554,
        0.5076790597384846,
        0.15508350397462933,
        0.21494647020404514,
        0.10122473916232244,
        1.1625031984751457,
        0.1868235400020057,
        0.5387153684818321,
        -0.5342791398473052,
        -1.1126103363258595,
        0.7201446730075114,
        -0.3200888788963435,
        0.06786436100276438,
        0.8823782944499381,
        -0.38832742855804436,
        -0.9347853445657244,
        0.33502067904693783,
        -0.08536729075773265,
        0.9881445708137265,
        -1.4013109776057242,
        -0.16923717472590932,
        -0.14258208307364953,
        -1.282054557190602,
        0.13336874173517593,
        0.6564418617555614,
        1.155788519007008,
        -0.4648846526227639,
        -1.1282941477254784,
        -1.5001211168640938,
        1.0188757738904792,
        -0.48697162120352566,
        -0.13309447826563287,
        -0.3974960066365274,
        -0.04183302650866903,
        -0.04617340284354961,
        -1.3347113711376506,
        1.1992537487012087
      ],
      [
        -0.5563422536115071,
        0.7024440617232105,
        0.9589539905113937,
        0.08989254613282367,
        0.4236740899870929,
        0.2456967949394085,
        2.1109286580296307,
        0.7541607509281046,
        1.0749271023924725,
        0.7627593482681044,
        -1.4301131580819462,
        -0.777771670692012,
        0.8146476184540092,
        -0.2283084661864187,
        -0.894022754917693,
        0.7157130052451072,
        0.9052202705592073,
        -1.3908480003115842,
        0.2847574056828848,
        -1.470292130084979,
        1.1736524843193394,
        1.5343808109742758,
        -1.076236078020703,
        -0.650883703913441,
        -1.1618894329901277,
        -0.3254582932296384,
        0.7449852332428043,
        -0.1074611125098317,
        0.6421150371430807,
        1.692175670351759,
        0.9723454192972453,
        0.5841228517879555,
        -1.8848673965890899,
        0.5559715343865186,
        1.2307561705367416,
        0.7536692090632368,
        -2.4797800696903303,
        1.0609258643994028,
        0.1638835713053385,
        -0.9630965220880141,
        -0.45813055057425284,
        0.873806935697186,
        -1.1565827268149962,
        -0.42144030531329957,
        1.0488831788706992,
        -0.2180012947558627,
        0.11340958161050402,
        -0.04361636970227505,
        -1.1930797562493245,
        0.791000880690803
      ],
      [
        -1.190590063507792,
        0.23709066943691165,
        0.6235343311202697,
        0.7475527967432953,
        0.5372892496770966,
        0.9920769656740284,
        0.2743989368882076,
        0.721042378227397,
        0.04349559887581997,
        -0.7078854733557064,
        0.08353667872812655,
        0.6420957318268924,
        1.2072557993830253,
        0.04477875356161681,
        1.7697066699254245,
        -1.294543378488602,
        0.46508660953998926,
        0.35609678658465177,
        -0.8798720649208176,
        1.843947693729733,
        -0.639152824087772,
        -1.462679862490273,
        -0.9696576006821517,
        1.3119838737906824,
        -0.5227064472016318,
        1.3207465780404284,
        -0.5452297789392346,
        -1.0527368606992666,
        0.6699243002570824,
        -0.4044964316304032,
        -0.32068835496028936,
        -0.4109043276135401,
        -0.8431900308406455,
        0.8018584267864881,
        -1.1503017838755345,
        -0.6864673394517677,
        1.824736129701427,
        0.6945153927347787,
        -2.722222842316812,
        -0.10330037846727741,
        0.29372067651374206,
        -1.5311511380681755,
        -0.8113721089318411,
        0.5820667222001835,
        -0.5788414571256354,
        -0.288152449186336,
        -0.9560089633787393,
        -0.859461864803699,
        -0.08894360398418452,
        1.1310378339510705
      ],
      [
        1.6479734961789134,
        0.9324572208357559,
        -0.801079242913494,
        -1.057216784054674,
        0.4431655214409359,
        0.077320318519232,
        1.077770847062431,
        1.46075113055414,
        -2.1629155831120266,
        -0.4713043856025744,
        0.016344642491692,
        0.6523493279144642,
        0.7224277706125519,
        -0.17400645629872602,
        1.0142106810299145,
        0.6954770449096134,
        -0.4048210835866276,
        -0.8293502631387409,
        0.396295388618884,
        0.29776885743451664,
        0.5375382452754082,
        -0.4208010589320978,
        -1.0574459963318863,
        0.17260284566856834,
        -0.32005793819132855,
        -1.5382182896735512,
        -0.13340364709697827,
        1.5859624519030722,
        0.46722085448150685,
        -0.15914475073198187,
        -0.19746112943552058,
        -1.2837717345472828,
        0.014631443742690873,
        2.3185990995242474,
        -0.174105794562991,
        0.6585028301980295,
        -1.6161957224078616,
        -0.7937423286239614,
        -2.2285597264296593,
        -0.13680304040574673,
        -1.2479287979738418,
        -0.6185951995188653,
        -0.03654522318074182,
        0.27261257170618186,
        0.22335085140027047,
        -0.5478135010428027,
        -1.1308221213284608,
        -0.17140804710851335,
        -0.8722552639216601,
        1.5873041453812629
      ],
      [
        -0.049817961113198424,
        -0.5859898964021454,
        -0.013318427760621889,
        0.3193602364189005,
        -0.18378955623024748,
        1.01039733398849,
        -1.630420962156659,
        -1.4103791080034367,
        -0.8329142178752151,
        -1.2528475633762688,
        0.3975040651153138,
        -0.7252194403392692,
        -0.6351054325518484,
        -0.034770614023036384,
        1.1608867439949122,
        0.5416098094736284,
        3.3704000346395198,
        -0.5378925130464058,
        -0.20268934963408064,
        -0.3564490401815638,
        0.8973301078467516,
        0.02486533778050234,
        -0.6106276664576326,
        0.5814220119330803,
        -0.5906523533508452,
        -0.001066943063829798,
        0.9107676314587261,
        -1.3896787256390641,
        0.6643802498150072,
        0.8925943507863263,
        0.6243452056490275,
        0.05892833594886362,
        0.6091597076204993,
        1.7502617821589543,
        -0.759141816866373,
        -1.2620529203619923,
        -0.3759296188599156,
        0.27980445927808534,
        -0.5358689443456746,
        -0.9620497893611039,
        1.4071408597123949,
        -1.7724974851415929,
        -0.9476291817171134,
        -0.6447887612509099,
        -0.1409489096668639,
        -0.7522744880209608,
        -1.6802800207210413,
        -0.29933531519557804,
        2.059795953131623,
        -0.31324629907809654
      ],
      [
        -0.1721091714648484,
        -0.6198316398429135,
        -1.7183100305421508,
        0.9191212988848049,
        0.8626368667019491,
        1.116626885208475,
        0.9142565319485633,
        0.09492557855980298,
        1.2098206358143846,
        -0.30506790058361166,
        0.31384467870558846,
        0.1893732474802283,
        -1.036103403990318,
        -0.37713747245263435,
        -0.1149642272876237,
        0.7716695758998775,
        -0.11494631945321525,
        -1.6959940732020715,
        0.5387834780225877,
        -0.4145520587278284,
        0.07931579402749671,
        0.06845703027494064,
        0.03419145562190843,
        0.7595134038885281,
        -1.10879038196158,
        -0.5918007576320676,
        -0.8129679123927913,
        0.057458535900944734,
        -0.4962026340557187,
        0.7926890220114982,
        1.0607661049322181,
        0.19488388388368227,
        0.8715403603484113,
        0.09781870957410606,
        -0.08074866995287708,
        0.14010091333547714,
        0.12559654505248133,
        0.6870519484919104,
        0.1534218666020973,
        0.618972047581257,
        -0.7824488691546131,
        -0.387025793872666,
        -1.3226668923744769,
        0.15108518750381045,
        -1.6850016598681274,
        0.7685517920500492,
        1.4454642438209389,
        -0.3508812533964078,
        -0.592276764625681,
        0.6412952598361682
      ],
      [
        1.692550669261665,
        -1.234348305333286,
        -1.0166511041981072,
        0.4293007866378833,
        2.139568201762044,
        -1.1559876172139396,
        -0.7713782454124587,
        -1.6183827207511532,
        -0.8879656585319408,
        0.8648696008391875,
        1.170722537259072,
        -0.9453408100617191,
        1.3934996807085622,
        -0.1390819449340033,
        -0.8788701730227841,
        -0.010425973119582073,
        -1.582160319108836,
        0.7304280614395224,
        0.11030958104427058,
        1.1616006527614762,
        0.03918983090382186,
        1.7449441850175154,
        2.2766144980557192,
        0.9476200953489017,
        2.633233477920084,
        -0.7908970462583939,
        -0.44182012263473336,
        1.209071939876091,
        -0.4103006356266056,
        0.21839757529043086,
        0.25793069535754276,
        0.08068225073172715,
        -1.0754643803753787,
        -1.489010730228224,
        -0.5175130918044801,
        1.2837428152079744,
        -1.1631465725285908,
        -1.0834331825166719,
        0.05315227039864816,
        0.480877901889088,
        -0.6448569729174757,
        1.8399374865302505,
        -0.6060230977576044,
        -0.10196307542927126,
        0.36464212237600246,
        0.5391667616750749,
        0.4199710620750829,
        0.35114935646710493,
        -2.0049469207203443,
        0.510019376727125
      ],
      [
        0.09657200029018942,
        -0.817854944665459,
        -0.6817815573776873,
        -0.3352677807784661,
        -0.13130477118255743,
        -0.8848614685706566,
        -0.7707422264422971,
        2.7073224955638846,
        -0.9361784367297664,
        0.5018467475210393,
        -1.9595889505154092,
        -0.7312236774112927,
        0.20239007832833492,
        0.11209657453583055,
        0.49606625219761213,
        0.48390667879099913,
        1.618453839628729,
        0.9685170972198088,
        -0.5238131610134186,
        0.25835662309343954,
        0.16410400189261906,
        0.3879569417655128,
        -1.2658684016495714,
        0.2904147387074831,
        -1.552467288941974,
        -1.6157800829960949,
        1.299011026674213,
        0.050435478181554125,
        0.9074230526736224,
        -0.23719300372555815,
        -0.5436672680671629,
        -0.22820704592568045,
        0.32048958651904713,
        0.5000621366490955,
        -0.14411109097744434,
        -0.864434426695988,
        -0.4710629833209092,
        -0.06809257735479905,
        0.9499754190129059,
        -0.322405029075694,
        -0.06592190529134867,
        0.18502335212522406,
        -1.1896271323367806,
        -0.0836220865441787,
        0.9823899157040603,
        -0.43859139321654017,
        -0.12139378361902319,
        -2.195363752432001,
        -0.06510883540623995,
        -0.0323041983029806
      ],
      [
        -0.3819442669695946,
        -0.05343543394832298,
        -0.4894353723000704,
        0.0859769269064266,
        -0.4139573836925401,
        2.123935715291372,
        -1.2691269557983351,
        0.5893628742121565,
        0.29695744021314147,
        -0.35139144092058283,
        0.2927300712340731,
        -0.9792583544163803,
        0.28325934445011747,
        -1.5196985265445966,
        -0.16351305417747353,
        -1.5054141145427458,
        1.0818347493462313,
        -2.023364400578312,
        0.24530818385054556,
        -1.047214922359379,
        -0.6329929378748004,
        0.8185243086411907,
        -0.4037852257394205,
        -0.6368625310016708,
        -0.3387329953331922,
        -0.3617831754133587,
        0.9146901651890585,
        0.7719249997548101,
        0.47615736753235643,
        0.5224489855685784,
        0.30166739731029363,
        0.8791639710176643,
        -1.1844787317180339,
        -1.968582888510614,
        0.6248839626932179,
        0.15739814331817675,
        0.4530093335818193,
        2.2219465880039455,
        0.12060683083620423,
        0.5955869047416724,
        -1.1627108575895653,
        0.3764758785356504,
        -0.21187295036769563,
        0.7676737739617331,
        0.6135700837855906,
        0.9006260298497882,
        -0.9595560499526822,
        -1.7736018266059526,
        0.36428525851296856,
        -0.14976209239755334
      ],
      [
        0.9167381922669348,
        -1.1165270028923018,
        -1.0696292676306787,
        -0.41914800027209054,
        -0.7242070108824609,
        0.8922385320665573,
        -0.9859044387217639,
        -0.404350671072105,
        -1.0714166851657043,
        -0.13738960088196808,
        0.433824861676857,
        1.6014741702729505,
        1.1558959370937185,
        -1.3197753920580595,
        0.6689170337264264,
        0.3628077791469942,
        -0.8290815437319583,
        -0.37872881418210685,
        0.6351793708427155,
        -1.6502791374392167,
        -1.3559859805722483,
        -1.834345910792412,
        -0.13703064697957235,
        -0.22533587621879264,
        -0.7272079948208483,
        -0.0895993818323121,
        -1.5384680212600714,
        0.1489200861204057,
        -1.578616049777993,
        -0.012329643268946497,
        -0.8009930992668558,
        0.1151693363331797,
        -1.4174541303185535,
        -1.7247083460264374,
        1.1760595136554026,
        0.7943473286437832,
        0.19765171562735886,
        -2.1538473864420045,
        1.5661573200480245,
        1.817884118342423,
        0.8714637237846078,
        -1.4363121092402567,
        -1.518217977013109,
        0.47861391506692014,
        -1.6391056609714203,
        -0.5281620661964161,
        0.70887100886033,
        -0.15765913892773914,
        0.025915126743354493,
        -0.7829683427238469
      ],
      [
        0.4303673252707348,
        1.6634639336623753,
        0.5436812930633361,
        1.1411667978288007,
        -1.5472555165150936,
        0.7125275354709457,
        1.472097039371624,
        -0.002919263804922137,
        -0.9058572740439121,
        -1.4882189634035654,
        -0.40016990465046587,
        -0.44454915936572004,
        0.6476298153785405,
        0.7754092661287674,
        1.1380334325215946,
        -0.1868697899128145,
        0.16090354838955181,
        -0.6191490210646045,
        -0.9558384382648158,
        0.4692907594292807,
        -0.15860566419956104,
        0.48747672825936167,
        0.2664761440938463,
        -0.9847203151333884,
        0.938241971590579,
        0.7828338937445848,
        -1.507676824548462,
        -1.0929336338174809,
        -0.7560668685132217,
        0.8056772269392343,
        -0.16886646382021886,
        0.764631937977666,
        0.28530791626730645,
        1.2615779138097414,
        -0.3159872893286384,
        0.2267341714402021,
        2.170766295730916,
        -0.30506194749393156,
        0.12196477788228256,
        -0.39040555842622154,
        -0.7713400082173296,
        0.33717601121787466,
        1.2097655200398678,
        -2.123032086599031,
        0.47464899128198124,
        -1.2022595366001836,
        0.701694029549402,
        -1.4659746193493834,
        -1.2732387113443164,
        -1.466049353169153
      ],
      [
        0.09464691971849243,
        -1.9262695081633334,
        -0.53287974220929,
        0.7788590737127166,
        0.9091188009601157,
        0.10882108665852623,
        0.5678562899513786,
        -0.8485442835229231,
        1.6803966715641334,
        -1.1246406691494892,
        0.36190233219094486,
        -0.6093826894519762,
        1.2456115581795886,
        2.300443343872944,
        -0.09791566252264015,
        0.22396640952594135,
        -1.2391709363443364,
        0.34075020515479515,
        -0.40075277013117244,
        -1.0968233921438886,
        0.38122409087875864,
        0.3822036286960695,
        0.5554105405275067,
        -0.3183258483524663,
        0.24835312268844953,
        -0.007686465248467668,
        -0.9770027905193289,
        -0.4115545087784039,
        2.0178465025375463,
        0.6550670105702692,
        -1.4466555271978263,
        1.232641956868496,
        -0.6662598483718023,
        1.6267176389482803,
        -1.1164160244001642,
        0.7541688224318619,
        0.14309050921389818,
        0.2584664067938491,
        0.4319896663709636,
        -0.09171837833905742,
        0.7904464403744514,
        0.24085295955568206,
        -0.8899315848657869,
        -1.0018996586623374,
        0.7005771755628206,
        0.6397880148593479,
        -1.6059820941146958,
        -0.07704095123092723,
        1.454662703690559,
        0.8704049665042662
      ],
      [
        1.4593167519164771,
        -1.1005531231356676,
        -0.23922252718185713,
        -0.23248298524214556,
        -0.9429239069657595,
        -2.6914159686436214,
        0.5622967787828186,
        0.7788765276303345,
        0.9706704050884205,
        -0.5241783043944244,
        0.8671425483740732,
        -1.0141087642224251,
        0.11801530123551833,
        -0.2269887333028083,
        -0.5938025987658644,
        0.6775872279848326,
        -0.132042806090583,
        -0.3694250056017999,
        -1.3644467048640343,
        0.2858470132289486,
        -0.6214449255662907,
        0.7492771552662689,
        1.0646580140143351,
        -0.5241011221026366,
        0.4996952950214139,
        -1.1730007260094168,
        -0.1450455169536652,
        0.6451941939394645,
        0.8743068280039712,
        0.371740144171799,
        -1.0154967407187365,
        1.4257366515415684,
        -1.2883869894552564,
        0.5758331796415077,
        -1.3514223806505545,
        -1.1154624847573764,
        0.34843697554853514,
        -1.9801531562765469,
        -1.0947366873439703,
        -2.337903016466546,
        -0.5540064444272276,
        -1.1588832966902785,
        0.6604890128553174,
        1.5864884980038219,
        1.3299545292614003,
        0.8718647022462599,
        0.5557041124684664,
        -0.9185185196784188,
        -0.30676815501309174,
        -0.22668170334271712
      ],
      [
        0.20958712369751634,
        2.0496107988102743,
        -0.9963488355229072,
        0.025589926641852955,
        2.2847901747837915,
        2.018496874135519,
        -0.2253862831677334,
        1.116623329612968,
        1.077095094397529,
        0.2069101059164182,
        1.4458239712699597,
        0.7808501413018626,
        2.034337681305695,
        1.396065845196893,
        1.5175254559625042,
        -1.317328693230559,
        0.42114796430477164,
        0.09993609943111735,
        0.4924006275417013,
        -0.5220418192773447,
        -1.4419162904954943,
        0.5055691715038617,
        -0.18119251115543467,
        0.1529773590030708,
        -1.430406189123564,
        -0.7676556232603955,
        1.5557775379946555,
        -0.20361839344232896,
        0.3005194030942474,
        1.2681350577015214,
        0.8926936077986657,
        0.2091660749420017,
        1.7083920133742572,
        0.20941662126064733,
        0.5653117996486591,
        -0.20299230421161069,
        0.6031754101993515,
        1.6283016318239738,
        1.13073184576437,
        -0.24246041025137718,
        0.36875342272522654,
        -0.7041224684876684,
        -1.790157783429751,
        -0.21830614150345326,
        -0.19574762631572265,
        -0.7342298289618505,
        -0.5575701079802929,
        -0.9595714590581924,
        0.31226963581065015,
        -0.03762895120696761
      ],
      [
        -0.39506662144636817,
        0.03900575026457569,
        -1.262815043170801,
        0.7564453560498124,
        0.6396817770124731,
        -2.377003336091083,
        0.787341428283328,
        -0.6608294911006566,
        -0.017567425871524187,
        -0.394407872206763,
        -2.4252152722797007,
        0.672094714600023,
        0.8757724739170354,
        2.0110120038233728,
        0.8831440530693166,
        0.04858714197707165,
        0.5393214595840365,
        1.0826553127673795,
        0.6932872558158851,
        1.63528986418303,
        -1.3098462379983962,
        0.4450948104134052,
        -0.3822328648694229,
        0.09778039827749227,
        -0.06434035066107904,
        -0.18720140995703546,
        1.6448413392666588,
        1.6794933175225373,
        -0.5453439518092852,
        0.5856153210747,
        -0.3620772577726154,
        -0.21654382452318066,
        -1.4258696256833363,
        0.6008118222101037,
        0.153048931935205,
        1.4423736828676545,
        -0.5783521079978169,
        -1.5736849277739746,
        1.023311102681111,
        0.7073942383092309,
        0.8221458826904358,
        -0.5466800894904309,
        -0.591020028443196,
        1.5229355893956582,
        -2.109793525013832,
        -1.0675581942850612,
        -0.4175963458247875,
        0.6111080216647846,
        1.0038914086488906,
        0.13142617078400057
      ],
      [
        0.9883399583004169,
        -1.5494628340200491,
        -0.7194086282970257,
        -2.6342112005390543,
        0.721064273296867,
        -1.1902571666862072,
        0.4955322910774015,
        1.1594896942387054,
        1.1778541258393738,
        1.6065125691182016,
        0.3099246865161641,
        -0.003076850850949097,
        0.3426670454613828,
        1.252661246610697,
        0.3854083015741157,
        2.5618804057984437,
        0.8483516005885784,
        -0.8073640032223559,
        0.6765816832259386,
        0.7770806924761416,
        0.640454065752669,
        0.19461530815847086,
        -0.887657801982166,
        1.7882633372999424,
        0.24732215019781767,
        0.5113230135719338,
        -0.4868852644530959,
        0.5279317528587228,
        1.0224058086272825,
        0.2835404581077915,
        -0.6231292033835634,
        1.587144439640546,
        1.9541905171805434,
        0.6315631427184583,
        0.8925471794936597,
        -0.4271499895191157,
        0.7698347285228613,
        0.10287163736331263,
        3.0768169499229443,
        -0.23570043526611964,
        -2.2446798713620093,
        -0.878877185217557,
        -0.7934047148722132,
        -1.3334376177082758,
        1.5215682682798521,
        0.22441730509895713,
        -1.232958571144356,
        -0.3590010099120938,
        -0.49148269597902106,
        1.3795034705079625
      ],
      [
        -0.11095792783438899,
        0.09223013188192958,
        -1.2888889991555434,
        -0.5753555206111958,
        2.7615176680998816,
        1.2096501915260496,
        0.6934350224171408,
        0.02631782382945237,
        1.2351140848038937,
        0.9983987478033785,
        -0.749960840583387,
        0.259101516534923,
        -0.33860558894979514,
        0.22726978369279754,
        0.5776086704668387,
        -0.022021991295236718,
        -0.8571617617437953,
        0.9069124443172418,
        -2.117674280386734,
        0.10404248613991479,
        -1.0268802044897118,
        0.021819973362994072,
        -0.6842830698263227,
        0.05108085917973535,
        -0.2793682969874848,
        0.46026419699607074,
        -0.19186828672273742,
        -1.9873797189067286,
        -0.8857774057084314,
        0.20726256662100717,
        0.7559427409993305,
        -1.0027170759083857,
        0.7934341598855115,
        0.9206630160652661,
        1.7019151699833155,
        -0.2712821342031244,
        0.9643439649583448,
        0.28097374057711083,
        0.5282454758829165,
        -1.5424693136518572,
        0.1834088767814543,
        -0.16032387872128312,
        0.5967323588332708,
        1.19771985876704,
        0.45841789373523056,
        -2.03572898065102,
        -0.5320906185432313,
        -0.3230407416794874,
        1.1578278568518956,
        -0.1015290525553679
      ],
      [
        -1.3276962280172926,
        -0.11897760073059817,
        0.04898174014447756,
        1.4611669517560986,
        0.5723042921948973,
        -0.18773712014461635,
        0.2851336004987499,
        0.754601642960477,
        0.13128254149629717,
